{"learner":{"attributes":{"scikit_learn":"{\"_estimator_type\": \"classifier\"}"},"feature_names":[],"feature_types":[],"gradient_booster":{"model":{"gbtree_model_param":{"num_parallel_tree":"1","num_trees":"100"},"iteration_indptr":[0,1,2,3,4,5,6,7,8,9,10,11,12,13,14,15,16,17,18,19,20,21,22,23,24,25,26,27,28,29,30,31,32,33,34,35,36,37,38,39,40,41,42,43,44,45,46,47,48,49,50,51,52,53,54,55,56,57,58,59,60,61,62,63,64,65,66,67,68,69,70,71,72,73,74,75,76,77,78,79,80,81,82,83,84,85,86,87,88,89,90,91,92,93,94,95,96,97,98,99,100],"tree_info":[0,0,0,0,0,0,0,0,0,0,0,0,0,0,0,0,0,0,0,0,0,0,0,0,0,0,0,0,0,0,0,0,0,0,0,0,0,0,0,0,0,0,0,0,0,0,0,0,0,0,0,0,0,0,0,0,0,0,0,0,0,0,0,0,0,0,0,0,0,0,0,0,0,0,0,0,0,0,0,0,0,0,0,0,0,0,0,0,0,0,0,0,0,0,0,0,0,0,0,0],"trees":[{"base_weights":[-0E0,1.2903048E0,-4.790192E-1,1.655702E0,8.92819E-1,3.3061838E-1,-9.6351546E-1,1.576109E0,1.9270401E0,6.867969E-1,1.7142023E0,1.2725691E-1,1.6843898E0,-1.1050712E0,1.3920448E0,9.339218E-1,1.6206902E0,1.828644E0,1.9801899E0,7.943085E-1,-3.3869064E-1,1.3990263E0,1.9229802E0,-9.9038094E-1,2.5737092E-1,1.3065194E0,1.9261161E0,-1.5335846E0,-1.0156429E0,6.597451E-1,1.8268002E0,1.0293208E0,-1.3681783E-1,1.6620297E0,1.0860976E0,1.4934976E0,1.8489897E0,1.9515102E0,5.9792745E-1,-6.197987E-1,8.4057146E-1,-1.1576227E0,-2.4213517E-1,1.4657949E0,7.2684085E-1,1.7596544E0,1.9682853E0,-1.379245E0,-9.0972465E-1,5.999125E-1,1.5077075E-1,2.6620486E-1,1.3785008E0,1.7008559E0,1.9645711E0,-1.7208098E0,-1.4090282E0,-1.6035019E0,-9.6204877E-1,-6.2095237E-1,7.2512054E-1,1.4434537E0,1.9190898E0,1.3012584E-1,3.2696733E-1,-2.4375E-1,2.4974622E-2,2.2184134E-1,5.040377E-1,5.9821695E-1,3.013946E-1,4.7074103E-1,2.4615386E-1,4.3864232E-1,5.5847466E-1,4.1454548E-1,5.865885E-1,-2.9916623E-1,-1.4389141E-1,-4.1097365E-2,2.6917988E-1,-4.4652703E-1,-2.8287527E-1,-3.26226E-1,-5.3133026E-2,1.51724145E-2,4.485854E-1,2.3323616E-1,-4.1176474E-1,5.3678036E-1,3.9301848E-1,5.655254E-1,5.960702E-1,-4.6238396E-1,-3.7844488E-1,-4.4159633E-1,-2.5719184E-1,-3.0346915E-1,9.352902E-2,-1.6034484E-1,1.10764086E-1,5.9894925E-1,3.977212E-1,3.2080537E-1,5.226212E-1,5.6785E-1,5.9652746E-1,-5.535296E-1,-4.978976E-1,-5.3401417E-1,-4.1179085E-1,-4.6119267E-1,-5.1438934E-1,5.9985846E-1,-3.0972272E-1,-2.020202E-3,-2.5759578E-1,5.982036E-1,1.9099861E-1,5.2534565E-2,4.4483367E-1,5.3682154E-1,5.934257E-1],"categories":[],"categories_nodes":[],"categories_segments":[],"categories_sizes":[],"default_left":[0,0,0,0,0,0,0,0,0,0,0,0,0,0,0,0,0,0,0,0,0,0,0,0,0,0,0,0,0,0,0,0,0,0,0,0,0,0,0,0,0,0,0,0,0,0,0,0,0,0,0,0,0,0,0,0,0,0,0,0,0,0,0,0,0,0,0,0,0,0,0,0,0,0,0,0,0,0,0,0,0,0,0,0,0,0,0,0,0,0,0,0,0,0,0,0,0,0,0,0,0,0,0,0,0,0,0,0,0,0,0,0,0,0,0,0,0,0,0,0,0,0,0],"id":0,"left_children":[1,3,5,7,9,11,13,15,17,19,21,23,25,27,29,31,33,35,37,39,41,43,45,47,49,51,53,55,57,59,61,63,65,67,69,71,73,75,-1,77,79,81,83,85,87,89,91,93,95,-1,97,99,101,103,105,107,109,111,113,115,117,119,121,-1,-1,-1,-1,-1,-1,-1,-1,-1,-1,-1,-1,-1,-1,-1,-1,-1,-1,-1,-1,-1,-1,-1,-1,-1,-1,-1,-1,-1,-1,-1,-1,-1,-1,-1,-1,-1,-1,-1,-1,-1,-1,-1,-1,-1,-1,-1,-1,-1,-1,-1,-1,-1,-1,-1,-1,-1,-1,-1,-1],"loss_changes":[3.459055E5,2.2004688E4,1.600955E5,1.7018906E3,1.2279934E4,4.206514E4,8.514097E4,1.7461406E3,8.999219E1,6.397324E3,9.54875E2,1.931811E4,1.8201953E3,9.228531E3,4.6071406E3,4.0515576E2,1.2596406E3,4.013672E1,4.0625E-1,3.436211E3,4.3513177E2,2.5934473E2,6.1289062E1,4.3322754E2,2.2100076E4,5.828428E2,1.0206641E2,9.6734375E2,6.276797E3,4.5204858E2,3.1854102E2,1.3086255E2,4.8430706E1,8.8325E2,3.0120117E2,1.7305176E1,2.615039E1,5.1689453E0,0E0,8.756006E1,2.8185625E3,3.9826294E1,2.7061865E2,2.2015723E2,5.6984528E1,2.308252E1,6.8535156E0,4.3426758E1,3.3696973E2,0E0,2.0982996E4,4.186926E1,2.3486816E2,4.451123E1,1.40078125E1,1.23171875E2,3.348047E2,1.19828125E2,3.8057844E4,3.8319168E1,5.747964E2,8.783667E1,5.24375E1,0E0,0E0,0E0,0E0,0E0,0E0,0E0,0E0,0E0,0E0,0E0,0E0,0E0,0E0,0E0,0E0,0E0,0E0,0E0,0E0,0E0,0E0,0E0,0E0,0E0,0E0,0E0,0E0,0E0,0E0,0E0,0E0,0E0,0E0,0E0,0E0,0E0,0E0,0E0,0E0,0E0,0E0,0E0,0E0,0E0,0E0,0E0,0E0,0E0,0E0,0E0,0E0,0E0,0E0,0E0,0E0,0E0,0E0,0E0,0E0],"parents":[2147483647,0,0,1,1,2,2,3,3,4,4,5,5,6,6,7,7,8,8,9,9,10,10,11,11,12,12,13,13,14,14,15,15,16,16,17,17,18,18,19,19,20,20,21,21,22,22,23,23,24,24,25,25,26,26,27,27,28,28,29,29,30,30,31,31,32,32,33,33,34,34,35,35,36,36,37,37,39,39,40,40,41,41,42,42,43,43,44,44,45,45,46,46,47,47,48,48,50,50,51,51,52,52,53,53,54,54,55,55,56,56,57,57,58,58,59,59,60,60,61,61,62,62],"right_children":[2,4,6,8,10,12,14,16,18,20,22,24,26,28,30,32,34,36,38,40,42,44,46,48,50,52,54,56,58,60,62,64,66,68,70,72,74,76,-1,78,80,82,84,86,88,90,92,94,96,-1,98,100,102,104,106,108,110,112,114,116,118,120,122,-1,-1,-1,-1,-1,-1,-1,-1,-1,-1,-1,-1,-1,-1,-1,-1,-1,-1,-1,-1,-1,-1,-1,-1,-1,-1,-1,-1,-1,-1,-1,-1,-1,-1,-1,-1,-1,-1,-1,-1,-1,-1,-1,-1,-1,-1,-1,-1,-1,-1,-1,-1,-1,-1,-1,-1,-1,-1,-1,-1],"split_conditions":[-1.3434416E0,-7.579451E-1,-7.579451E-1,1.4397169E0,1.3913614E0,1.9247167E0,2.4865973E0,-1.6013789E0,2.736425E0,-1.3995023E0,2.736425E0,-1.6013789E0,3.365721E0,-6.428176E-1,3.7664926E0,-1.3995023E0,-1.3995023E0,-1.6013789E0,3.9979978E0,-1.6603317E0,-6.951847E-1,-1.4090726E0,3.567566E0,-6.47199E-1,-1.4747438E0,-1.6013789E0,3.9979978E0,-7.393597E-1,3.8745063E-3,3.8745063E-3,4.519149E0,-6.863796E-1,-5.3798616E-1,-1.6603317E0,-1.4747438E0,-1.4090726E0,3.8745063E-3,-1.6603317E0,5.9792745E-1,-9.3901837E-1,3.8745063E-3,-7.5767344E-1,3.8745063E-3,-1.6603317E0,1.6791705E0,-1.3995023E0,4.2588897E0,-7.393597E-1,3.8745063E-3,5.999125E-1,-1.4639084E0,-1.4368211E0,-1.4747438E0,-1.6013789E0,5.086886E0,-7.814628E-1,3.8745063E-3,3.4222192E-1,9.961569E-1,-7.6907724E-1,9.961569E-1,3.8745063E-3,5.802267E0,1.3012584E-1,3.2696733E-1,-2.4375E-1,2.4974622E-2,2.2184134E-1,5.040377E-1,5.9821695E-1,3.013946E-1,4.7074103E-1,2.4615386E-1,4.3864232E-1,5.5847466E-1,4.1454548E-1,5.865885E-1,-2.9916623E-1,-1.4389141E-1,-4.1097365E-2,2.6917988E-1,-4.4652703E-1,-2.8287527E-1,-3.26226E-1,-5.3133026E-2,1.51724145E-2,4.485854E-1,2.3323616E-1,-4.1176474E-1,5.3678036E-1,3.9301848E-1,5.655254E-1,5.960702E-1,-4.6238396E-1,-3.7844488E-1,-4.4159633E-1,-2.5719184E-1,-3.0346915E-1,9.352902E-2,-1.6034484E-1,1.10764086E-1,5.9894925E-1,3.977212E-1,3.2080537E-1,5.226212E-1,5.6785E-1,5.9652746E-1,-5.535296E-1,-4.978976E-1,-5.3401417E-1,-4.1179085E-1,-4.6119267E-1,-5.1438934E-1,5.9985846E-1,-3.0972272E-1,-2.020202E-3,-2.5759578E-1,5.982036E-1,1.9099861E-1,5.2534565E-2,4.4483367E-1,5.3682154E-1,5.934257E-1],"split_indices":[15,16,16,12,12,12,12,16,12,15,12,16,12,12,12,15,15,16,12,15,12,15,12,12,16,16,12,12,20,20,12,12,12,15,16,15,20,15,0,17,20,12,20,15,16,15,12,12,20,0,16,17,16,16,12,12,20,14,20,13,20,20,12,0,0,0,0,0,0,0,0,0,0,0,0,0,0,0,0,0,0,0,0,0,0,0,0,0,0,0,0,0,0,0,0,0,0,0,0,0,0,0,0,0,0,0,0,0,0,0,0,0,0,0,0,0,0,0,0,0,0,0,0],"split_type":[0,0,0,0,0,0,0,0,0,0,0,0,0,0,0,0,0,0,0,0,0,0,0,0,0,0,0,0,0,0,0,0,0,0,0,0,0,0,0,0,0,0,0,0,0,0,0,0,0,0,0,0,0,0,0,0,0,0,0,0,0,0,0,0,0,0,0,0,0,0,0,0,0,0,0,0,0,0,0,0,0,0,0,0,0,0,0,0,0,0,0,0,0,0,0,0,0,0,0,0,0,0,0,0,0,0,0,0,0,0,0,0,0,0,0,0,0,0,0,0,0,0,0],"sum_hessian":[5.596425E5,1.5151475E5,4.0812775E5,7.894225E4,7.25725E4,1.527945E5,2.5533325E5,6.1043E4,1.789925E4,5.802125E4,1.455125E4,1.328405E5,1.9954E4,2.408595E5,1.447375E4,3.964E3,5.7079E4,6.29E3,1.160925E4,5.251575E4,5.5055E3,5.80125E3,8.75E3,1.385175E4,1.1898875E5,7.78725E3,1.216675E4,4.158425E4,1.9927525E5,5.39275E3,9.081E3,3.63975E3,3.2425E2,5.298E4,4.099E3,3.6425E2,5.92575E3,3.64925E3,7.96E3,1.66325E3,5.08525E4,5.795E2,4.926E3,5.276E3,5.2525E2,1.90875E3,6.84125E3,2.37675E3,1.1475E4,6.85925E3,1.121295E5,5.0425E2,7.283E3,1.78075E3,1.0386E4,1.660775E4,2.49765E4,1.664725E4,1.82628E5,2.615E2,5.13125E3,1.76525E3,7.31575E3,3.3675E2,3.303E3,7.9E1,2.4525E2,1.02E3,5.196E4,3.355E2,3.7635E3,3.2625E2,3.8E1,1.905E2,5.73525E3,2.65E1,3.62275E3,4.4875E2,1.2145E3,2.7875E3,4.8065E4,2.2575E2,3.5375E2,3.5075E2,4.57525E3,1.0775E2,5.16825E3,5.135E2,1.175E1,1.788E3,1.2075E2,1.2695E3,5.57175E3,9.9525E2,1.3815E3,9.7625E2,1.049875E4,1.364075E4,9.848875E4,5.7E1,4.4725E2,5.7E2,6.713E3,1.1075E2,1.67E3,2.61175E3,7.77425E3,5.467E3,1.114075E4,2.22675E3,2.274975E4,1.044225E4,6.205E3,4.2375E3,1.783905E5,7.325E1,1.8825E2,3.33E2,4.79825E3,5.325E1,1.712E3,2.29725E3,5.0185E3],"tree_param":{"num_deleted":"0","num_feature":"21","num_nodes":"123","size_leaf_vector":"1"}},{"base_weights":[1.2347136E-3,9.119235E-1,-3.6408585E-1,1.225089E0,5.900282E-1,2.9516357E-1,-6.8475753E-1,1.276694E0,8.663635E-1,4.3722615E-1,1.3325831E0,1.5487026E-1,1.848121E0,-8.058658E-1,8.599732E-1,1.2107742E0,1.4793671E0,-3.1054202E-1,9.227754E-1,5.869168E-1,-2.0827594E-1,1.0906792E0,1.497689E0,3.2655883E-1,-1.094655E0,5.73145E-1,1.6002711E0,-1.1180063E0,-7.2847795E-1,3.0400515E-1,1.3739835E0,7.331953E-1,1.244917E0,1.3884952E0,1.5267804E0,-1.0567555E0,-2.8907929E-2,3.166577E-2,9.9041003E-1,-1.4490417E-1,6.625245E-1,-1.003862E0,-1.4748971E-1,1.3332921E-1,1.1287429E0,1.40977E0,1.5364182E0,1.0156431E-1,1.8475037E0,-1.204546E0,9.559925E-1,5.0090176E-1,4.67856E-1,-1.2808127E0,-1.0029104E0,-6.9655097E-1,-1.4566481E0,3.453803E-1,-1.2821597E0,1.0661553E0,1.4771072E0,-6.2018983E-2,2.3023343E-1,4.8190936E-1,3.6193186E-1,3.258235E-1,4.2196354E-1,4.4432148E-1,4.610041E-1,-3.3415323E-1,3.7823895E-1,2.862261E-2,-2.8017843E-1,-2.4676472E-2,4.1617054E-1,2.6697886E-1,4.3280882E-1,-3.0125427E-1,6.132334E-3,2.095129E-1,-2.4828176E-1,-3.5925537E-1,-2.5453877E-1,-3.1188725E-2,-3.8769948E-1,1.0289881E-1,-3.1909657E-1,3.445104E-1,-3.0505674E-2,2.1119878E-1,4.251748E-1,4.6119276E-1,3.417874E-1,1.01005636E-1,-3.552044E-1,5.7315874E-1,4.801591E-1,-4.676894E-1,-3.2793385E-1,8.467135E-2,4.3017927E-1,-4.1838002E-1,-3.6191395E-1,-2.835575E-1,-3.7572202E-1,-2.1668176E-1,6.9021666E-1,-4.4718856E-1,-4.114159E-1,-1.7929135E-1,1.2066049E-1,-1.2532443E-1,-4.0941513E-1,3.278054E-1,-1.104079E-1,4.0170807E-1,4.559164E-1],"categories":[],"categories_nodes":[],"categories_segments":[],"categories_sizes":[],"default_left":[0,0,0,0,0,0,0,0,0,0,0,0,0,0,0,0,0,0,0,0,0,0,0,0,0,0,0,0,0,0,0,0,0,0,0,0,0,0,0,0,0,0,0,0,0,0,0,0,0,0,0,0,0,0,0,0,0,0,0,0,0,0,0,0,0,0,0,0,0,0,0,0,0,0,0,0,0,0,0,0,0,0,0,0,0,0,0,0,0,0,0,0,0,0,0,0,0,0,0,0,0,0,0,0,0,0,0,0,0,0,0,0,0,0,0,0,0],"id":1,"left_children":[1,3,5,7,9,11,13,15,17,19,21,23,25,27,29,31,33,35,37,39,41,43,45,47,49,-1,51,53,55,57,59,61,63,65,67,69,71,73,75,77,79,81,83,85,87,89,91,93,95,97,99,-1,-1,101,103,105,107,109,111,113,115,-1,-1,-1,-1,-1,-1,-1,-1,-1,-1,-1,-1,-1,-1,-1,-1,-1,-1,-1,-1,-1,-1,-1,-1,-1,-1,-1,-1,-1,-1,-1,-1,-1,-1,-1,-1,-1,-1,-1,-1,-1,-1,-1,-1,-1,-1,-1,-1,-1,-1,-1,-1,-1,-1,-1,-1],"loss_changes":[1.8029011E5,1.5639258E4,8.1762734E4,1.4546719E3,8.680533E3,2.7574512E4,4.867836E4,9.166875E2,6.571118E2,6.13142E3,5.1984766E2,2.4902957E4,1.5902734E2,5.8275625E3,5.405592E3,8.450469E2,7.055859E1,9.5227005E1,5.689746E2,2.8501855E3,5.7755096E2,1.9299121E2,2.4248047E1,3.4924496E4,3.161248E3,0E0,3.3754883E0,8.9691016E2,4.494E3,5.9693024E2,3.104453E2,1.1167078E2,6.714453E2,3.0104492E1,2.7324219E0,1.7832443E1,3.722789E1,1.0312437E2,3.9750098E2,6.8542664E2,2.4947422E3,2.4495972E1,5.529442E2,5.1514465E1,1.2320508E2,1.1588379E1,1.5039062E-1,2.6874068E4,2.0166406E2,5.2397656E2,2.2945361E2,0E0,0E0,1.6642773E2,4.032754E2,1.4281828E4,2.1480469E1,4.749193E2,1.5934143E1,9.4384766E1,4.1273438E1,0E0,0E0,0E0,0E0,0E0,0E0,0E0,0E0,0E0,0E0,0E0,0E0,0E0,0E0,0E0,0E0,0E0,0E0,0E0,0E0,0E0,0E0,0E0,0E0,0E0,0E0,0E0,0E0,0E0,0E0,0E0,0E0,0E0,0E0,0E0,0E0,0E0,0E0,0E0,0E0,0E0,0E0,0E0,0E0,0E0,0E0,0E0,0E0,0E0,0E0,0E0,0E0,0E0,0E0,0E0,0E0],"parents":[2147483647,0,0,1,1,2,2,3,3,4,4,5,5,6,6,7,7,8,8,9,9,10,10,11,11,12,12,13,13,14,14,15,15,16,16,17,17,18,18,19,19,20,20,21,21,22,22,23,23,24,24,26,26,27,27,28,28,29,29,30,30,31,31,32,32,33,33,34,34,35,35,36,36,37,37,38,38,39,39,40,40,41,41,42,42,43,43,44,44,45,45,46,46,47,47,48,48,49,49,50,50,53,53,54,54,55,55,56,56,57,57,58,58,59,59,60,60],"right_children":[2,4,6,8,10,12,14,16,18,20,22,24,26,28,30,32,34,36,38,40,42,44,46,48,50,-1,52,54,56,58,60,62,64,66,68,70,72,74,76,78,80,82,84,86,88,90,92,94,96,98,100,-1,-1,102,104,106,108,110,112,114,116,-1,-1,-1,-1,-1,-1,-1,-1,-1,-1,-1,-1,-1,-1,-1,-1,-1,-1,-1,-1,-1,-1,-1,-1,-1,-1,-1,-1,-1,-1,-1,-1,-1,-1,-1,-1,-1,-1,-1,-1,-1,-1,-1,-1,-1,-1,-1,-1,-1,-1,-1,-1,-1,-1,-1,-1],"split_conditions":[-1.2872117E0,-7.579451E-1,-9.0130484E-1,-1.3995023E0,1.5980291E0,-1.0359912E0,2.0024943E0,1.217096E0,-7.1708727E-1,-1.4090726E0,3.019294E0,-1.0446646E0,1.9247167E0,-6.171607E-1,3.567566E0,-1.6013789E0,2.3756363E0,-7.717695E-1,-1.6013789E0,-6.863796E-1,-7.259557E-1,3.8745063E-3,4.2588897E0,-1.1832858E0,2.4865973E0,5.73145E-1,3.365721E0,-7.259557E-1,1.6791705E0,1.6791705E0,4.519149E0,-1.6603317E0,-1.4747438E0,-1.6013789E0,3.019294E0,-8.7715274E-1,-9.0130484E-1,3.365721E0,1.7810129E0,-7.765421E-1,1.6791705E0,-7.6703376E-1,1.6791705E0,9.957439E-1,1.6791705E0,-1.6603317E0,1.7525371E0,-1.1880243E0,1.9247167E0,-5.781247E-1,3.9979978E0,5.0090176E-1,4.67856E-1,-7.717695E-1,1.4131209E0,1.5386798E0,5.503369E-1,3.8745063E-3,-1.0939962E0,1.6791705E0,5.4241114E0,-6.2018983E-2,2.3023343E-1,4.8190936E-1,3.6193186E-1,3.258235E-1,4.2196354E-1,4.4432148E-1,4.610041E-1,-3.3415323E-1,3.7823895E-1,2.862261E-2,-2.8017843E-1,-2.4676472E-2,4.1617054E-1,2.6697886E-1,4.3280882E-1,-3.0125427E-1,6.132334E-3,2.095129E-1,-2.4828176E-1,-3.5925537E-1,-2.5453877E-1,-3.1188725E-2,-3.8769948E-1,1.0289881E-1,-3.1909657E-1,3.445104E-1,-3.0505674E-2,2.1119878E-1,4.251748E-1,4.6119276E-1,3.417874E-1,1.01005636E-1,-3.552044E-1,5.7315874E-1,4.801591E-1,-4.676894E-1,-3.2793385E-1,8.467135E-2,4.3017927E-1,-4.1838002E-1,-3.6191395E-1,-2.835575E-1,-3.7572202E-1,-2.1668176E-1,6.9021666E-1,-4.4718856E-1,-4.114159E-1,-1.7929135E-1,1.2066049E-1,-1.2532443E-1,-4.0941513E-1,3.278054E-1,-1.104079E-1,4.0170807E-1,4.559164E-1],"split_indices":[15,16,16,15,12,16,12,12,12,15,12,16,12,12,12,16,12,12,16,12,12,20,12,16,12,0,12,12,16,16,12,15,16,16,12,16,16,12,12,12,16,12,16,3,16,15,18,16,12,12,12,0,0,12,13,16,17,20,15,16,12,0,0,0,0,0,0,0,0,0,0,0,0,0,0,0,0,0,0,0,0,0,0,0,0,0,0,0,0,0,0,0,0,0,0,0,0,0,0,0,0,0,0,0,0,0,0,0,0,0,0,0,0,0,0,0,0],"split_type":[0,0,0,0,0,0,0,0,0,0,0,0,0,0,0,0,0,0,0,0,0,0,0,0,0,0,0,0,0,0,0,0,0,0,0,0,0,0,0,0,0,0,0,0,0,0,0,0,0,0,0,0,0,0,0,0,0,0,0,0,0,0,0,0,0,0,0,0,0,0,0,0,0,0,0,0,0,0,0,0,0,0,0,0,0,0,0,0,0,0,0,0,0,0,0,0,0,0,0,0,0,0,0,0,0,0,0,0,0,0,0,0,0,0,0,0,0],"sum_hessian":[5.419088E5,1.5514767E5,3.8676112E5,7.863878E4,7.650888E4,1.2656465E5,2.6019647E5,6.8746555E4,9.892232E3,6.3453152E4,1.30557295E4,1.1607922E5,1.0485433E4,2.4128036E5,1.8916123E4,5.1879566E4,1.6866988E4,4.522639E2,9.439969E3,5.1508516E4,1.1944635E4,5.2992188E3,7.7565107E3,1.0205701E5,1.4022205E4,8.372178E3,2.113255E3,4.7932668E4,1.9334769E5,9.087941E3,9.828182E3,3.4629883E3,4.841658E4,5.7934873E3,1.10735E4,1.2316788E2,3.29096E2,6.660467E2,8.773922E3,4.823176E3,4.668534E4,8.46742E2,1.1097893E4,2.0280951E2,5.096409E3,2.3833916E3,5.373119E3,8.8906125E4,1.3150884E4,1.3309389E4,7.128166E2,7.67016E2,1.3462389E3,1.9847596E4,2.8085072E4,1.8522822E5,8.1194663E3,8.857671E3,2.3027039E2,2.4691133E3,7.359069E3,1.2157247E2,3.341416E3,4.6543306E3,4.3762246E4,3.2975638E2,5.4637305E3,1.9982115E3,9.075289E3,1.2071371E2,2.4541676E0,2.9013647E2,3.8959545E1,6.152786E2,5.076807E1,7.1814478E3,1.5924742E3,7.775068E2,4.045669E3,4.5589023E4,1.0963175E3,3.7398398E2,4.72758E2,1.0692453E4,4.0544003E2,1.7318707E2,2.9622435E1,5.0164644E3,7.994494E1,2.5990099E1,2.3574016E3,5.358227E3,1.4892082E1,7.516064E4,1.3745485E4,1.0471832E4,2.6790513E3,3.1805393E3,1.012885E4,2.9647012E2,4.163465E2,7.841846E3,1.2005749E4,2.2812412E4,5.2726597E3,1.8365294E5,1.5752867E3,5.7938833E3,2.325583E3,5.028444E2,8.354826E3,2.0603434E1,2.0966695E2,2.4245032E3,4.461018E1,1.7431755E3,5.615893E3],"tree_param":{"num_deleted":"0","num_feature":"21","num_nodes":"117","size_leaf_vector":"1"}},{"base_weights":[3.641198E-3,6.775548E-1,-2.8364357E-1,9.712256E-1,4.0189806E-1,-4.1392577E-1,7.566981E-1,1.0478386E0,6.7038906E-1,2.643007E-1,1.0334898E0,7.532765E-3,-6.612136E-1,3.5788083E-1,1.2223073E0,4.880312E-1,1.0745237E0,5.498542E-1,1.1858085E0,4.3494865E-1,-1.3717127E-1,7.719501E-1,1.2567166E0,-5.7950526E-2,2.1442292E0,-1.2947372E0,-6.299276E-1,7.553513E-1,4.634676E-2,9.21465E-1,1.3377359E0,-2.7863926E-1,5.9870595E-1,2.886195E-1,1.0904514E0,4.9922132E-1,1.7674432E0,9.671934E-1,1.3248973E0,-9.200537E-1,4.7311285E-1,-1.2323233E0,-9.3001835E-2,8.705589E-1,3.9849153E-1,1.1412371E0,1.3273252E0,5.000315E-2,-9.3632984E-1,6.7328644E-1,6.3911116E-1,-1.3880785E0,-1.2715516E0,2.659428E0,-6.722822E-1,7.050685E-1,1.767582E0,-1.0911839E0,9.0979695E-2,1.1741656E0,6.8146396E-1,1.4836067E0,1.2626687E0,-2.4470913E-1,-2.7709095E-2,1.655128E-1,4.2367122E-1,5.1881716E-2,3.1042832E-1,3.1117895E-1,3.893161E-1,1.8101987E-1,-1.8262862E-1,4.8184747E-1,6.383982E-1,8.643054E-3,3.0277908E-1,3.6597747E-1,4.087934E-1,-4.1757625E-1,-2.545242E-1,4.9349317E-1,1.2664679E-1,-4.6957117E-1,-3.571766E-1,6.464981E-1,-4.4895098E-2,5.7933286E-2,2.7538553E-1,1.4450942E-1,-1.0054722E-1,3.5889262E-1,2.9400492E-1,3.9852443E-1,2.6672432E-1,-1.7217766E-2,4.5395896E-1,-4.22918E-1,-2.6734856E-1,-4.16993E-1,-2.4130778E-1,7.761672E-1,-3.8962606E-1,6.2433404E-1,8.1931746E-1,-3.8417768E-1,-1.9201083E-1,2.3855434E-1,-1.12915926E-1,6.345812E-1,4.836019E-1,-4.7376296E-1,-3.1417742E-1,6.474727E-1,8.40329E-3,2.0262754E-1,3.622514E-1,2.281502E-1,4.5677453E-2,4.405551E-1,4.9925116E-1,3.4641105E-1,3.9813295E-1],"categories":[],"categories_nodes":[],"categories_segments":[],"categories_sizes":[],"default_left":[0,0,0,0,0,0,0,0,0,0,0,0,0,0,0,0,0,0,0,0,0,0,0,0,0,0,0,0,0,0,0,0,0,0,0,0,0,0,0,0,0,0,0,0,0,0,0,0,0,0,0,0,0,0,0,0,0,0,0,0,0,0,0,0,0,0,0,0,0,0,0,0,0,0,0,0,0,0,0,0,0,0,0,0,0,0,0,0,0,0,0,0,0,0,0,0,0,0,0,0,0,0,0,0,0,0,0,0,0,0,0,0,0,0,0,0,0,0,0,0,0,0,0],"id":2,"left_children":[1,3,5,7,9,11,13,15,17,19,21,23,25,27,29,31,33,35,37,39,41,43,45,47,49,51,53,55,57,59,61,63,65,67,69,71,73,75,77,79,81,83,85,87,89,91,93,95,97,-1,-1,99,101,103,105,107,109,111,113,115,117,119,121,-1,-1,-1,-1,-1,-1,-1,-1,-1,-1,-1,-1,-1,-1,-1,-1,-1,-1,-1,-1,-1,-1,-1,-1,-1,-1,-1,-1,-1,-1,-1,-1,-1,-1,-1,-1,-1,-1,-1,-1,-1,-1,-1,-1,-1,-1,-1,-1,-1,-1,-1,-1,-1,-1,-1,-1,-1,-1,-1,-1],"loss_changes":[9.9170555E4,1.2393141E4,4.8676684E4,1.7077422E3,6.8628203E3,3.326399E4,7.421617E3,8.8201953E2,9.342466E2,4.44271E3,8.237832E2,1.6513463E4,3.9859688E3,2.6659712E3,6.3911523E2,2.2840424E2,7.0553906E2,7.511321E2,8.541821E1,2.3536006E3,9.355347E2,2.3930713E2,6.0617188E1,1.0858673E4,8.59375E-2,1.8717773E1,2.6706719E4,4.8026074E2,6.1296234E2,3.095088E2,1.4403516E2,3.3938618E1,8.910187E1,9.6620186E1,6.079531E2,1.3523154E3,2.4879028E1,4.3886353E1,5.2321777E0,4.0969482E1,2.6422021E3,8.554321E0,2.3681714E3,1.6508813E2,8.325607E1,2.4561523E1,1.0732422E0,1.6025401E4,2.6673926E2,0E0,0E0,9.562988E-1,8.004336E2,9.526758E1,3.7113516E3,8.787622E2,2.077124E1,8.117615E0,1.512057E3,4.060254E1,1.09745605E2,9.875977E0,5.972168E1,0E0,0E0,0E0,0E0,0E0,0E0,0E0,0E0,0E0,0E0,0E0,0E0,0E0,0E0,0E0,0E0,0E0,0E0,0E0,0E0,0E0,0E0,0E0,0E0,0E0,0E0,0E0,0E0,0E0,0E0,0E0,0E0,0E0,0E0,0E0,0E0,0E0,0E0,0E0,0E0,0E0,0E0,0E0,0E0,0E0,0E0,0E0,0E0,0E0,0E0,0E0,0E0,0E0,0E0,0E0,0E0,0E0,0E0,0E0,0E0],"parents":[2147483647,0,0,1,1,2,2,3,3,4,4,5,5,6,6,7,7,8,8,9,9,10,10,11,11,12,12,13,13,14,14,15,15,16,16,17,17,18,18,19,19,20,20,21,21,22,22,23,23,24,24,25,25,26,26,27,27,28,28,29,29,30,30,31,31,32,32,33,33,34,34,35,35,36,36,37,37,38,38,39,39,40,40,41,41,42,42,43,43,44,44,45,45,46,46,47,47,48,48,51,51,52,52,53,53,54,54,55,55,56,56,57,57,58,58,59,59,60,60,61,61,62,62],"right_children":[2,4,6,8,10,12,14,16,18,20,22,24,26,28,30,32,34,36,38,40,42,44,46,48,50,52,54,56,58,60,62,64,66,68,70,72,74,76,78,80,82,84,86,88,90,92,94,96,98,-1,-1,100,102,104,106,108,110,112,114,116,118,120,122,-1,-1,-1,-1,-1,-1,-1,-1,-1,-1,-1,-1,-1,-1,-1,-1,-1,-1,-1,-1,-1,-1,-1,-1,-1,-1,-1,-1,-1,-1,-1,-1,-1,-1,-1,-1,-1,-1,-1,-1,-1,-1,-1,-1,-1,-1,-1,-1,-1,-1,-1,-1,-1,-1,-1,-1,-1,-1,-1,-1],"split_conditions":[-1.2217087E0,-7.579451E-1,1.5429035E0,-1.4090726E0,1.3006806E0,-7.579451E-1,3.1872053E0,-7.0817924E-1,1.3447075E0,-1.427575E0,2.736425E0,-8.7715274E-1,-7.3972577E-1,-7.579451E-1,4.2588897E0,-7.814628E-1,-1.6603317E0,-8.7715274E-1,2.736425E0,-7.3972577E-1,-7.3972577E-1,-1.4090726E0,4.2588897E0,-9.0130484E-1,-6.171607E-1,-1.3815192E0,-6.1458534E-1,-8.7715274E-1,-7.3972577E-1,-7.579451E-1,-1.1832858E0,-1.1919509E0,-8.7715274E-1,1.6551533E0,1.7154529E0,-9.0130484E-1,-1.2872117E0,3.8745063E-3,3.7664926E0,-1.4368211E0,-6.1458534E-1,-1.417358E0,-6.1458534E-1,-1.6393992E0,1.519627E0,-1.4369326E0,1.7525371E0,-1.0359912E0,3.8745063E-3,6.7328644E-1,6.3911116E-1,1.4899225E0,-7.069499E-1,9.961569E-1,-5.904596E-1,-9.0130484E-1,1.9247167E0,-1.484696E0,-6.1458534E-1,-1.6013789E0,1.4131209E0,-1.1880243E0,5.802267E0,-2.4470913E-1,-2.7709095E-2,1.655128E-1,4.2367122E-1,5.1881716E-2,3.1042832E-1,3.1117895E-1,3.893161E-1,1.8101987E-1,-1.8262862E-1,4.8184747E-1,6.383982E-1,8.643054E-3,3.0277908E-1,3.6597747E-1,4.087934E-1,-4.1757625E-1,-2.545242E-1,4.9349317E-1,1.2664679E-1,-4.6957117E-1,-3.571766E-1,6.464981E-1,-4.4895098E-2,5.7933286E-2,2.7538553E-1,1.4450942E-1,-1.0054722E-1,3.5889262E-1,2.9400492E-1,3.9852443E-1,2.6672432E-1,-1.7217766E-2,4.5395896E-1,-4.22918E-1,-2.6734856E-1,-4.16993E-1,-2.4130778E-1,7.761672E-1,-3.8962606E-1,6.2433404E-1,8.1931746E-1,-3.8417768E-1,-1.9201083E-1,2.3855434E-1,-1.12915926E-1,6.345812E-1,4.836019E-1,-4.7376296E-1,-3.1417742E-1,6.474727E-1,8.40329E-3,2.0262754E-1,3.622514E-1,2.281502E-1,4.5677453E-2,4.405551E-1,4.9925116E-1,3.4641105E-1,3.9813295E-1],"split_indices":[15,16,12,15,12,16,12,12,12,15,12,16,16,16,12,12,15,16,12,16,16,15,12,16,12,13,16,16,16,16,16,19,16,12,12,16,15,20,12,17,16,15,16,15,17,15,18,16,20,0,0,12,13,20,16,16,12,18,16,16,13,16,12,0,0,0,0,0,0,0,0,0,0,0,0,0,0,0,0,0,0,0,0,0,0,0,0,0,0,0,0,0,0,0,0,0,0,0,0,0,0,0,0,0,0,0,0,0,0,0,0,0,0,0,0,0,0,0,0,0,0,0,0],"split_type":[0,0,0,0,0,0,0,0,0,0,0,0,0,0,0,0,0,0,0,0,0,0,0,0,0,0,0,0,0,0,0,0,0,0,0,0,0,0,0,0,0,0,0,0,0,0,0,0,0,0,0,0,0,0,0,0,0,0,0,0,0,0,0,0,0,0,0,0,0,0,0,0,0,0,0,0,0,0,0,0,0,0,0,0,0,0,0,0,0,0,0,0,0,0,0,0,0,0,0,0,0,0,0,0,0,0,0,0,0,0,0,0,0,0,0,0,0,0,0,0,0,0,0],"sum_hessian":[5.122291E5,1.530956E5,3.5913353E5,7.412452E4,7.897106E4,3.1916503E5,3.9968496E4,5.9077094E4,1.5047431E4,6.4845395E4,1.4125673E4,1.18020625E5,2.0114439E5,2.1529332E4,1.8439166E4,2.6888596E3,5.6388234E4,1.2197109E4,2.8503213E3,4.5503703E4,1.934169E4,6.506688E3,7.618985E3,1.1451215E5,3.5084785E3,9.46397E3,1.9168042E5,9.459285E3,1.2070046E4,5.1155225E3,1.3323644E4,3.3900095E2,2.3498586E3,1.120477E3,5.5267758E4,1.1711502E4,4.8560785E2,1.1114056E3,1.7389158E3,1.2458887E3,4.4257812E4,7.4879944E2,1.859289E4,5.1464717E3,1.3602166E3,2.8974302E3,4.7215547E3,1.0197969E5,1.253246E4,4.072524E2,3.101226E3,1.8713557E3,7.5926143E3,2.435966E3,1.8924445E5,9.013247E3,4.4603833E2,4.5482288E2,1.1615223E4,2.489938E3,2.6255847E3,4.520544E3,8.8031E3,8.643066E1,2.5257028E2,2.2231106E3,1.2674803E2,9.711444E2,1.4933269E2,4.398626E4,1.1281494E4,1.0705382E4,1.0061192E3,3.392887E2,1.4631915E2,4.7761433E1,1.0636442E3,4.687293E2,1.2701864E3,1.6179152E2,1.0840972E3,1.8429901E3,4.2414824E4,7.934758E1,6.6945184E2,4.561055E2,1.8136785E4,3.368271E2,4.8096445E3,1.2219706E3,1.3824594E2,2.1549106E3,7.425196E2,4.7078203E3,1.3734274E1,9.500729E4,6.9723994E3,1.0889712E3,1.1443489E4,1.8639135E3,7.442242E0,5.2489727E1,7.5401245E3,2.7177972E2,2.1641863E3,9.524776E3,1.7971969E5,8.320227E3,6.9302057E2,1.339913E2,3.1204703E2,3.467079E1,4.2015207E2,3.4235745E2,1.1272865E4,1.5734666E2,2.3325913E3,2.2840286E3,3.4155603E2,4.1803267E3,3.4021738E2,3.297449E3,5.5056504E3],"tree_param":{"num_deleted":"0","num_feature":"21","num_nodes":"123","size_leaf_vector":"1"}},{"base_weights":[5.263803E-3,6.2933743E-1,-1.798003E-1,9.066392E-1,4.270919E-1,-2.562826E-1,8.720123E-1,8.4834754E-1,1.2989309E0,3.3236614E-1,1.0462098E0,6.1948974E-2,-4.5634046E-1,5.4501116E-1,1.1634176E0,9.163375E-1,-1.22845925E-1,1.3136427E0,3.7280506E-1,-3.3798316E-1,3.9435282E-1,8.396492E-1,1.1806105E0,-7.782711E-1,1.6236956E-1,-9.5726293E-1,-4.1296226E-1,8.5036135E-1,2.8943652E-1,9.9024844E-1,1.2293596E0,8.2615143E-1,1.2984997E0,-3.074259E-1,8.931102E-1,4.4760635E-1,3.9331374E-1,-6.706081E-1,-1.1926723E-1,4.5582128E-1,-1.9540808E-1,-2.4500926E-1,8.6227804E-1,1.0898565E0,1.2158998E0,-8.3369166E-1,-3.1326452E-1,1.4835424E0,8.603909E-2,-1.1393093E0,-9.141055E-1,1.9051709E0,-4.6849906E-1,1.5729135E-1,9.015545E-1,3.6402363E-1,-4.7511464E-1,1.1581159E0,8.0303484E-1,1.3094583E0,1.1853311E0,2.751168E-1,-5.638865E-2,3.941451E-1,3.734276E-1,-3.0091363E-1,-5.1226113E-2,1.5942502E-1,3.473943E-1,-2.3048468E-1,-1.0437601E-1,4.582966E-1,-1.3404249E-1,1.09487385E-1,4.604429E-1,-2.553388E-1,-3.4807198E-2,-2.6846623E-1,1.6967073E-2,6.232541E-2,2.6681417E-1,2.548193E-1,3.348331E-1,3.6510673E-1,2.3875806E-1,-2.3256332E-1,-3.7457925E-1,-1.728898E-1,-4.5635764E-2,4.1019008E-1,4.4924882E-1,-2.4821441E-1,6.4662546E-2,-3.4943137E-1,-1.8861954E-1,9.419186E-1,-2.8764412E-1,1.0110356E0,5.3477055E-1,-1.2381088E-1,-2.5741273E-1,-1.4338878E-1,1.1066842E-1,2.8195825E-1,1.15226604E-1,7.9861715E-2,4.937078E-1,-3.3365335E-2,-2.3551014E-1,1.9220874E-1,3.5095504E-1,-1.4008126E-1,2.5246888E-1,3.897152E-1,4.268955E-1,3.305753E-1,3.6556694E-1],"categories":[],"categories_nodes":[],"categories_segments":[],"categories_sizes":[],"default_left":[0,0,0,0,0,0,0,0,0,0,0,0,0,0,0,0,0,0,0,0,0,0,0,0,0,0,0,0,0,0,0,0,0,0,0,0,0,0,0,0,0,0,0,0,0,0,0,0,0,0,0,0,0,0,0,0,0,0,0,0,0,0,0,0,0,0,0,0,0,0,0,0,0,0,0,0,0,0,0,0,0,0,0,0,0,0,0,0,0,0,0,0,0,0,0,0,0,0,0,0,0,0,0,0,0,0,0,0,0,0,0,0,0,0,0,0,0],"id":3,"left_children":[1,3,5,7,9,11,13,15,17,19,21,23,25,27,29,31,33,35,-1,37,39,41,43,45,47,49,51,53,55,57,59,61,63,65,67,-1,-1,69,71,73,75,77,79,81,83,85,87,89,91,93,95,97,99,101,103,105,107,109,111,113,115,-1,-1,-1,-1,-1,-1,-1,-1,-1,-1,-1,-1,-1,-1,-1,-1,-1,-1,-1,-1,-1,-1,-1,-1,-1,-1,-1,-1,-1,-1,-1,-1,-1,-1,-1,-1,-1,-1,-1,-1,-1,-1,-1,-1,-1,-1,-1,-1,-1,-1,-1,-1,-1,-1,-1,-1],"loss_changes":[5.5565773E4,6.1709688E3,2.9851438E4,1.0601133E3,3.7315068E3,2.2023125E4,2.3962773E3,2.6682188E3,3.3330078E0,2.2934526E3,2.3341699E2,1.126643E4,4.614824E3,9.2490625E2,1.5065625E2,1.3004629E3,4.9619247E2,2.4072266E-1,0E0,3.3980994E2,1.8315103E3,8.198779E1,1.5048828E1,3.6710645E2,1.2027933E4,1.3194336E2,2.5166387E4,1.914856E2,3.682707E2,1.1450195E2,3.2402344E1,2.8170273E3,4.298828E0,2.126653E2,3.8361572E1,0E0,0E0,5.8141052E1,1.5218041E3,4.4849307E3,2.4815427E2,1.3547335E1,5.771411E1,8.149658E0,7.626953E-1,3.0806836E2,6.43248E1,8.518555E0,1.3338414E4,4.1384766E1,2.4837656E3,8.154531E2,4.1488633E3,5.0276398E1,9.9329834E1,7.369597E2,6.4668396E1,1.0994629E1,8.551599E1,2.175293E0,1.5905273E1,0E0,0E0,0E0,0E0,0E0,0E0,0E0,0E0,0E0,0E0,0E0,0E0,0E0,0E0,0E0,0E0,0E0,0E0,0E0,0E0,0E0,0E0,0E0,0E0,0E0,0E0,0E0,0E0,0E0,0E0,0E0,0E0,0E0,0E0,0E0,0E0,0E0,0E0,0E0,0E0,0E0,0E0,0E0,0E0,0E0,0E0,0E0,0E0,0E0,0E0,0E0,0E0,0E0,0E0,0E0,0E0],"parents":[2147483647,0,0,1,1,2,2,3,3,4,4,5,5,6,6,7,7,8,8,9,9,10,10,11,11,12,12,13,13,14,14,15,15,16,16,17,17,19,19,20,20,21,21,22,22,23,23,24,24,25,25,26,26,27,27,28,28,29,29,30,30,31,31,32,32,33,33,34,34,37,37,38,38,39,39,40,40,41,41,42,42,43,43,44,44,45,45,46,46,47,47,48,48,49,49,50,50,51,51,52,52,53,53,54,54,55,55,56,56,57,57,58,58,59,59,60,60],"right_children":[2,4,6,8,10,12,14,16,18,20,22,24,26,28,30,32,34,36,-1,38,40,42,44,46,48,50,52,54,56,58,60,62,64,66,68,-1,-1,70,72,74,76,78,80,82,84,86,88,90,92,94,96,98,100,102,104,106,108,110,112,114,116,-1,-1,-1,-1,-1,-1,-1,-1,-1,-1,-1,-1,-1,-1,-1,-1,-1,-1,-1,-1,-1,-1,-1,-1,-1,-1,-1,-1,-1,-1,-1,-1,-1,-1,-1,-1,-1,-1,-1,-1,-1,-1,-1,-1,-1,-1,-1,-1,-1,-1,-1,-1,-1,-1,-1,-1],"split_conditions":[-1.3995023E0,-9.0130484E-1,2.3756363E0,-1.0359912E0,1.8523806E0,-7.579451E-1,3.9979978E0,-1.0446646E0,1.5980291E0,-1.6393992E0,3.1872053E0,-1.6013789E0,3.8745063E-3,-7.579451E-1,5.086886E0,-1.1832858E0,1.7154529E0,-1.6603317E0,3.7280506E-1,-1.6603317E0,1.519627E0,-1.6603317E0,4.2588897E0,9.1168916E-1,-1.4747438E0,-1.3815192E0,9.961569E-1,-1.6013789E0,1.519627E0,-7.579451E-1,-1.1832858E0,-1.1880243E0,1.4397169E0,-6.1287236E-1,3.365721E0,4.4760635E-1,3.9331374E-1,3.8235942E-3,-1.6521564E0,1.0238446E0,-6.8205065E-1,2.1730068E0,3.8745063E-3,-1.3815192E0,1.7525371E0,1.519627E0,-3.6688107E-1,-1.2217087E0,-1.4639084E0,1.3913614E0,-7.069499E-1,-6.428176E-1,1.519627E0,-1.1919509E0,1.519627E0,1.0238446E0,-2.596801E-4,3.8745063E-3,3.8745063E-3,-1.1880243E0,6.216428E0,2.751168E-1,-5.638865E-2,3.941451E-1,3.734276E-1,-3.0091363E-1,-5.1226113E-2,1.5942502E-1,3.473943E-1,-2.3048468E-1,-1.0437601E-1,4.582966E-1,-1.3404249E-1,1.09487385E-1,4.604429E-1,-2.553388E-1,-3.4807198E-2,-2.6846623E-1,1.6967073E-2,6.232541E-2,2.6681417E-1,2.548193E-1,3.348331E-1,3.6510673E-1,2.3875806E-1,-2.3256332E-1,-3.7457925E-1,-1.728898E-1,-4.5635764E-2,4.1019008E-1,4.4924882E-1,-2.4821441E-1,6.4662546E-2,-3.4943137E-1,-1.8861954E-1,9.419186E-1,-2.8764412E-1,1.0110356E0,5.3477055E-1,-1.2381088E-1,-2.5741273E-1,-1.4338878E-1,1.1066842E-1,2.8195825E-1,1.15226604E-1,7.9861715E-2,4.937078E-1,-3.3365335E-2,-2.3551014E-1,1.9220874E-1,3.5095504E-1,-1.4008126E-1,2.5246888E-1,3.897152E-1,4.268955E-1,3.305753E-1,3.6556694E-1],"split_indices":[15,16,12,16,12,16,12,16,12,15,12,16,20,16,12,16,12,15,0,15,17,15,12,12,16,13,20,16,17,16,16,16,12,12,12,0,0,5,15,17,12,12,20,13,18,17,18,15,16,12,13,12,17,19,17,17,13,20,20,16,12,0,0,0,0,0,0,0,0,0,0,0,0,0,0,0,0,0,0,0,0,0,0,0,0,0,0,0,0,0,0,0,0,0,0,0,0,0,0,0,0,0,0,0,0,0,0,0,0,0,0,0,0,0,0,0,0],"split_type":[0,0,0,0,0,0,0,0,0,0,0,0,0,0,0,0,0,0,0,0,0,0,0,0,0,0,0,0,0,0,0,0,0,0,0,0,0,0,0,0,0,0,0,0,0,0,0,0,0,0,0,0,0,0,0,0,0,0,0,0,0,0,0,0,0,0,0,0,0,0,0,0,0,0,0,0,0,0,0,0,0,0,0,0,0,0,0,0,0,0,0,0,0,0,0,0,0,0,0,0,0,0,0,0,0,0,0,0,0,0,0,0,0,0,0,0,0],"sum_hessian":[4.8111353E5,1.1003862E5,3.710749E5,4.64065E4,6.3632117E4,3.4592203E5,2.5152877E4,4.0405676E4,6.000825E3,5.5189586E4,8.442533E3,1.3352494E5,2.123971E5,1.1853883E4,1.3298993E4,3.7762137E4,2.6435408E3,4.73896E3,1.2618656E3,4.6710024E3,5.0518582E4,3.3307493E3,5.111784E3,1.4254088E4,1.1927085E5,1.692537E4,1.9547173E5,5.3999346E3,6.453948E3,3.6720132E3,9.62698E3,3.055472E4,7.207415E3,2.237692E3,4.0584882E2,5.977365E1,4.679186E3,1.8521587E3,2.8188438E3,4.575042E4,4.768159E3,6.786741E1,3.2628818E3,1.4401122E3,3.671672E3,1.2735453E4,1.5186343E3,6.5134673E3,1.1275738E5,3.238664E3,1.3686704E4,4.5726763E3,1.9089905E5,3.7170773E2,5.028227E3,5.8807637E3,5.731843E2,1.9333053E3,1.7387078E3,3.4045435E3,6.2224365E3,2.8041217E4,2.513503E3,5.5905576E3,1.6168574E3,3.664147E2,1.8712773E3,1.7283746E2,2.3301135E2,1.4207365E3,4.3142224E2,4.6700632E2,2.3518374E3,4.2198184E4,3.5522388E3,5.138641E2,4.2542954E3,2.0887394E1,4.6980015E1,1.3008109E2,3.1328008E3,1.4504002E2,1.2950721E3,3.6599932E3,1.1679094E1,1.116467E4,1.5707838E3,5.759479E2,9.4268646E2,7.0867706E2,5.8047905E3,1.4000734E4,9.875665E4,3.0836064E3,1.5505753E2,1.4854373E2,1.353816E4,3.5109064E2,4.2215854E3,1.669833E5,2.3915748E4,9.2563705E1,2.79144E2,4.6808994E3,3.4732733E2,5.464887E3,4.1587656E2,2.6425894E2,3.0892535E2,4.4104828E1,1.8892006E3,5.086783E1,1.68784E3,3.1300369E3,2.745066E2,1.7822319E3,4.4402046E3],"tree_param":{"num_deleted":"0","num_feature":"21","num_nodes":"117","size_leaf_vector":"1"}},{"base_weights":[6.8316315E-3,4.1821924E-1,-1.796473E-1,6.90043E-1,2.4416436E-1,-2.7436072E-1,4.1845027E-1,6.187183E-1,1.2483683E0,1.4226934E-1,7.385863E-1,5.6232672E-2,-3.9988872E-1,2.3931505E-1,1.0162268E0,7.067445E-1,-3.663401E-1,1.2023907E0,1.3934278E0,-4.6715385E-1,1.9518311E-1,5.491983E-1,1.0529739E0,-1.11172974E-1,4.4682726E-1,-7.843904E-1,-3.439789E-1,5.533378E-1,1.0215634E-1,7.6013E-1,1.1171983E0,5.9229094E-1,1.2618011E0,-7.785507E-2,-9.472788E-1,3.6334068E-1,3.4960178E-1,1.4304137E0,3.595592E-1,-9.315495E-1,-3.6052212E-1,-2.950447E-1,2.581442E-1,-2.8382945E-1,5.9198064E-1,9.106047E-1,1.1265235E0,8.030193E-2,-1.0396923E0,-9.7944134E-1,-6.94991E-1,-7.3203295E-1,-2.8383976E-1,4.2408586E-1,1.3508873E0,-3.8161877E-1,1.7011164E-1,9.855827E-1,5.4510254E-1,1.0198144E0,1.1683238E0,2.1311925E-1,-1.1875415E-1,3.606727E-1,4.3005794E-1,-5.5762973E-2,2.840091E-1,-3.259204E-1,4.1616343E-2,4.4769403E-1,4.0526292E-1,-3.3210975E-1,-2.3057027E-1,-9.809554E-2,-3.8536927E-1,-1.8386E-1,-6.910197E-2,5.145504E-1,4.5756318E-2,-6.111671E-2,-4.206354E-1,4.010787E-1,1.6238338E-1,2.771713E-1,-2.2110675E-2,3.2183743E-1,3.4717968E-1,-7.415972E-2,5.354612E-1,-4.2911935E-1,-2.9904938E-1,-4.0866062E-1,-2.848897E-1,-3.5910416E-1,-1.980954E-1,-3.6794817E-1,-2.1019644E-1,8.099321E-1,-1.12790674E-1,1.7196953E-1,-1.6466014E-1,4.3312198E-1,3.7865883E-1,-1.472197E-1,-6.770291E-3,6.3371134E-1,1.7962279E-2,1.168192E-1,3.0077896E-1,-3.7907206E-2,1.8027142E-1,3.4130207E-1,2.7104488E-1,3.6519486E-1,3.418037E-1],"categories":[],"categories_nodes":[],"categories_segments":[],"categories_sizes":[],"default_left":[0,0,0,0,0,0,0,0,0,0,0,0,0,0,0,0,0,0,0,0,0,0,0,0,0,0,0,0,0,0,0,0,0,0,0,0,0,0,0,0,0,0,0,0,0,0,0,0,0,0,0,0,0,0,0,0,0,0,0,0,0,0,0,0,0,0,0,0,0,0,0,0,0,0,0,0,0,0,0,0,0,0,0,0,0,0,0,0,0,0,0,0,0,0,0,0,0,0,0,0,0,0,0,0,0,0,0,0,0,0,0,0,0,0,0],"id":4,"left_children":[1,3,5,7,9,11,13,15,17,19,21,23,25,27,29,31,33,35,37,39,41,43,45,47,-1,49,51,53,55,57,59,61,63,65,67,-1,-1,69,-1,71,73,75,77,79,81,83,85,87,89,91,93,95,97,99,101,103,105,107,109,111,113,-1,-1,-1,-1,-1,-1,-1,-1,-1,-1,-1,-1,-1,-1,-1,-1,-1,-1,-1,-1,-1,-1,-1,-1,-1,-1,-1,-1,-1,-1,-1,-1,-1,-1,-1,-1,-1,-1,-1,-1,-1,-1,-1,-1,-1,-1,-1,-1,-1,-1,-1,-1,-1,-1],"loss_changes":[3.470421E4,6.675584E3,1.763334E4,2.1926309E3,4.3335664E3,1.1151723E4,4.556651E3,4.2354336E3,3.9930664E1,2.3000552E3,8.745908E2,1.7743941E4,4.1867676E3,1.4102648E3,2.5286621E2,2.8476191E3,6.715103E2,1.2597656E-1,9.062988E0,2.818402E2,2.0256506E3,3.2715112E2,5.682373E1,1.177351E4,0E0,4.3046094E2,3.9681797E3,1.0255288E3,7.4932684E2,1.3412024E2,3.3833984E1,4.3386143E3,7.666016E1,2.9663617E2,2.0103052E2,0E0,0E0,4.1452637E0,0E0,2.9564514E1,1.4324323E2,1.5347058E2,8.949927E3,3.9924442E1,3.289048E2,2.4772095E1,4.7685547E0,3.0648969E4,1.8816113E2,8.734082E1,2.9438623E2,3.531416E2,4.047126E4,1.2435231E3,9.605957E0,1.0997708E2,4.278797E3,1.3351318E1,5.3429688E1,3.2285645E1,5.1533203E0,0E0,0E0,0E0,0E0,0E0,0E0,0E0,0E0,0E0,0E0,0E0,0E0,0E0,0E0,0E0,0E0,0E0,0E0,0E0,0E0,0E0,0E0,0E0,0E0,0E0,0E0,0E0,0E0,0E0,0E0,0E0,0E0,0E0,0E0,0E0,0E0,0E0,0E0,0E0,0E0,0E0,0E0,0E0,0E0,0E0,0E0,0E0,0E0,0E0,0E0,0E0,0E0,0E0,0E0],"parents":[2147483647,0,0,1,1,2,2,3,3,4,4,5,5,6,6,7,7,8,8,9,9,10,10,11,11,12,12,13,13,14,14,15,15,16,16,17,17,18,18,19,19,20,20,21,21,22,22,23,23,25,25,26,26,27,27,28,28,29,29,30,30,31,31,32,32,33,33,34,34,37,37,39,39,40,40,41,41,42,42,43,43,44,44,45,45,46,46,47,47,48,48,49,49,50,50,51,51,52,52,53,53,54,54,55,55,56,56,57,57,58,58,59,59,60,60],"right_children":[2,4,6,8,10,12,14,16,18,20,22,24,26,28,30,32,34,36,38,40,42,44,46,48,-1,50,52,54,56,58,60,62,64,66,68,-1,-1,70,-1,72,74,76,78,80,82,84,86,88,90,92,94,96,98,100,102,104,106,108,110,112,114,-1,-1,-1,-1,-1,-1,-1,-1,-1,-1,-1,-1,-1,-1,-1,-1,-1,-1,-1,-1,-1,-1,-1,-1,-1,-1,-1,-1,-1,-1,-1,-1,-1,-1,-1,-1,-1,-1,-1,-1,-1,-1,-1,-1,-1,-1,-1,-1,-1,-1,-1,-1,-1,-1],"split_conditions":[-1.128133E0,-9.0130484E-1,1.1422575E0,-1.0359912E0,1.1059237E0,-1.0446646E0,3.7664926E0,-1.0446646E0,-1.3995023E0,-7.126475E-1,3.019294E0,-1.1832858E0,-6.8205065E-1,-1.0446646E0,4.779919E0,-1.1832858E0,-1.3995023E0,1.7154529E0,1.9247167E0,-7.814628E-1,-1.4368211E0,3.8745063E-3,4.2588897E0,-1.1880243E0,4.4682726E-1,-7.6226115E-1,-1.4368211E0,-1.1832858E0,-1.4368211E0,-7.579451E-1,6.216428E0,-1.1880243E0,-1.3995023E0,2.3756363E0,1.217096E0,3.6334068E-1,3.4960178E-1,-1.2872117E0,3.595592E-1,-7.9152614E-1,1.6791705E0,-1.3815192E0,-9.682836E-1,1.5358107E0,9.961569E-1,1.6791705E0,5.802267E0,-1.3240528E0,-7.2156394E-1,-1.0359912E0,-1.0359912E0,-1.0359912E0,-9.682836E-1,-1.1880243E0,1.9247167E0,3.89309E-3,-9.682836E-1,3.8745063E-3,-1.4368211E0,-9.0130484E-1,-1.1832858E0,2.1311925E-1,-1.1875415E-1,3.606727E-1,4.3005794E-1,-5.5762973E-2,2.840091E-1,-3.259204E-1,4.1616343E-2,4.4769403E-1,4.0526292E-1,-3.3210975E-1,-2.3057027E-1,-9.809554E-2,-3.8536927E-1,-1.8386E-1,-6.910197E-2,5.145504E-1,4.5756318E-2,-6.111671E-2,-4.206354E-1,4.010787E-1,1.6238338E-1,2.771713E-1,-2.2110675E-2,3.2183743E-1,3.4717968E-1,-7.415972E-2,5.354612E-1,-4.2911935E-1,-2.9904938E-1,-4.0866062E-1,-2.848897E-1,-3.5910416E-1,-1.980954E-1,-3.6794817E-1,-2.1019644E-1,8.099321E-1,-1.12790674E-1,1.7196953E-1,-1.6466014E-1,4.3312198E-1,3.7865883E-1,-1.472197E-1,-6.770291E-3,6.3371134E-1,1.7962279E-2,1.168192E-1,3.0077896E-1,-3.7907206E-2,1.8027142E-1,3.4130207E-1,2.7104488E-1,3.6519486E-1,3.418037E-1],"split_indices":[15,16,12,16,12,16,12,16,15,12,12,16,12,16,12,16,15,12,12,12,17,20,12,16,0,12,17,16,17,16,12,16,15,12,12,0,0,15,0,12,16,13,17,16,20,16,12,16,12,16,16,16,17,16,12,4,17,20,17,16,16,0,0,0,0,0,0,0,0,0,0,0,0,0,0,0,0,0,0,0,0,0,0,0,0,0,0,0,0,0,0,0,0,0,0,0,0,0,0,0,0,0,0,0,0,0,0,0,0,0,0,0,0,0,0],"split_type":[0,0,0,0,0,0,0,0,0,0,0,0,0,0,0,0,0,0,0,0,0,0,0,0,0,0,0,0,0,0,0,0,0,0,0,0,0,0,0,0,0,0,0,0,0,0,0,0,0,0,0,0,0,0,0,0,0,0,0,0,0,0,0,0,0,0,0,0,0,0,0,0,0,0,0,0,0,0,0,0,0,0,0,0,0,0,0,0,0,0,0,0,0,0,0,0,0,0,0,0,0,0,0,0,0,0,0,0,0,0,0,0,0,0,0],"sum_hessian":[4.5237572E5,1.4109889E5,3.112768E5,5.5078742E4,8.602015E4,2.6872297E5,4.2553844E4,4.884148E4,6.2372637E3,7.132262E4,1.4697534E4,7.395471E4,1.9476827E5,3.2743137E4,9.810708E3,4.4835227E4,4.0062532E3,4.7431704E3,1.4940935E3,5.6973027E3,6.562531E4,9.173898E3,5.5236357E3,6.622066E4,7.7340605E3,2.472399E4,1.7004427E5,9.952958E3,2.2790178E4,2.776676E3,7.0340317E3,3.7172305E4,7.6629204E3,2.677689E3,1.3285642E3,3.8118213E3,9.313489E2,1.2504534E3,2.436402E2,1.0624504E3,4.634852E3,7.468713E3,5.81566E4,4.4785928E2,8.726039E3,1.8861045E3,3.6375315E3,5.4900285E4,1.1320366E4,7.76733E3,1.695666E4,2.2815266E4,1.47229E5,8.566234E3,1.3867236E3,2.8064424E3,1.9983736E4,1.3537296E3,1.4229465E3,2.428728E3,4.605304E3,3.320391E4,3.9683945E3,5.6955557E3,1.9673645E3,2.4230396E3,2.5464949E2,1.1776947E3,1.5086948E2,6.932067E2,5.572466E2,5.0881552E2,5.536349E2,4.4738335E3,1.6101862E2,1.2619078E3,6.206805E3,3.9299177E3,5.4226684E4,4.1902518E2,2.883413E1,5.544492E2,8.17159E3,1.8610204E3,2.508408E1,1.336844E3,2.3006875E3,4.6052934E4,8.8473545E3,1.1158976E3,1.0204469E4,5.5797705E2,7.209353E3,1.0933137E3,1.5863346E4,1.3591753E3,2.145609E4,4.4091704E3,1.4281983E5,7.427993E3,1.1382413E3,6.7000433E2,7.167193E2,2.1520732E3,6.5436926E2,1.0723293E3,1.8911406E4,3.822337E1,1.3155062E3,1.0908447E2,1.313862E3,1.2020817E3,1.2266462E3,1.6963457E3,2.9089583E3],"tree_param":{"num_deleted":"0","num_feature":"21","num_nodes":"115","size_leaf_vector":"1"}},{"base_weights":[8.162046E-3,4.1211587E-1,-1.02776036E-1,3.4272534E-1,9.9202424E-1,-1.4205693E-1,7.703518E-1,5.696996E-1,1.8538128E-1,8.220586E-1,1.0825748E0,-7.563347E-1,-9.622579E-2,5.11854E-1,1.0290617E0,-1.489821E-1,6.28852E-1,-5.0604826E-1,2.2961055E-1,9.826399E-1,6.545126E-1,9.944209E-1,1.1112406E0,-1.0019695E0,-7.0165354E-1,1.6211586E0,-1.5302067E-1,7.691482E-1,3.516465E-1,8.79942E-1,1.1021942E0,-8.340669E-2,-7.237045E-1,3.513165E-1,5.7691586E-1,-7.0335835E-1,-3.0054116E-1,1.4656049E0,1.4946672E-1,3.564545E-2,9.9566275E-1,1.4181143E-1,7.048781E-1,1.0718719E0,8.9548117E-1,1.1422572E0,1.0925097E0,-1.3650924E0,-9.27424E-1,1.775085E0,-7.5355095E-1,2.4171724E0,1.5966401E0,-5.714338E-1,-9.218461E-2,4.615052E-1,8.654512E-1,3.792183E-1,-7.923511E-1,8.891245E-1,-1.6683788E0,1.1033896E0,2.0457342E-1,-5.617943E-2,3.7720162E-1,-6.3605636E-1,-1.8700324E-1,-1.8725581E-1,2.004854E-1,-3.493802E-1,-1.8148106E-1,-7.4431725E-2,-4.0455443E-1,4.4572014E-1,3.7433442E-1,6.806092E-2,-8.3835386E-2,-2.5628486E-1,1.1655221E-1,2.0723064E-1,3.0413938E-1,1.09194234E-1,-3.574957E-1,3.5859454E-1,1.954178E-1,1.9505571E-1,3.2475874E-1,1.2491512E-2,2.7221566E-1,3.397818E-1,3.6911944E-1,3.2817942E-1,2.0840114E-1,-3.1281286E-1,-6.0303223E-1,4.284208E-1,-2.8570274E-1,4.9404708E-1,5.7955074E-1,-2.8666395E-1,-2.0736504E-1,7.606456E-1,5.3425753E-1,5.5249727E-1,4.7130373E-1,-2.5011584E-1,-1.3570276E-1,5.2634012E-2,-5.8608674E-2,2.2295906E-1,-1.0585354E-1,3.7131384E-1,2.3291488E-1,-1.18209146E-1,1.24609515E-1,9.2381105E-2,-3.0647758E-1,3.0388868E-1,2.1949507E-1,-9.129476E-1,-5.497857E-2,3.1234783E-1,3.362736E-1,-4.3554342E-1,2.3965962E-1],"categories":[],"categories_nodes":[],"categories_segments":[],"categories_sizes":[],"default_left":[0,0,0,0,0,0,0,0,0,0,0,0,0,0,0,0,0,0,0,0,0,0,0,0,0,0,0,0,0,0,0,0,0,0,0,0,0,0,0,0,0,0,0,0,0,0,0,0,0,0,0,0,0,0,0,0,0,0,0,0,0,0,0,0,0,0,0,0,0,0,0,0,0,0,0,0,0,0,0,0,0,0,0,0,0,0,0,0,0,0,0,0,0,0,0,0,0,0,0,0,0,0,0,0,0,0,0,0,0,0,0,0,0,0,0,0,0,0,0,0,0,0,0,0,0],"id":5,"left_children":[1,3,5,7,9,11,13,15,17,19,21,23,25,27,29,31,33,35,37,39,41,43,45,47,49,51,53,55,57,59,61,63,65,-1,67,69,71,73,75,77,79,81,83,85,87,89,91,93,95,97,99,101,103,105,107,109,111,113,115,117,119,121,123,-1,-1,-1,-1,-1,-1,-1,-1,-1,-1,-1,-1,-1,-1,-1,-1,-1,-1,-1,-1,-1,-1,-1,-1,-1,-1,-1,-1,-1,-1,-1,-1,-1,-1,-1,-1,-1,-1,-1,-1,-1,-1,-1,-1,-1,-1,-1,-1,-1,-1,-1,-1,-1,-1,-1,-1,-1,-1,-1,-1,-1,-1],"loss_changes":[1.914911E4,3.7044219E3,1.1497813E4,2.9365322E3,1.5053223E2,9.031572E3,9.646758E2,1.4312461E3,1.4852992E3,9.147534E1,1.5106934E1,2.984629E2,2.9118746E4,2.9739526E2,7.768457E1,9.645543E1,8.752363E2,1.181958E2,4.5213257E3,2.1500488E1,4.3245422E1,1.1177124E1,1.5605469E0,1.0844995E2,2.3434102E3,1.8266016E2,7.355749E3,8.167273E1,1.4072974E2,5.7133667E1,4.9624023E0,3.204753E2,3.5418533E1,0E0,3.115791E3,6.689172E1,7.836061E1,1.033252E1,1.42324E3,8.096341E0,8.824097E0,4.528655E1,3.930774E1,3.265686E0,7.0927124E0,1.3549805E-1,9.5703125E-1,1.4101587E2,1.9892358E2,4.3431396E0,2.2406543E2,1.6836792E1,5.5339844E1,1.1454404E3,6.9668154E3,1.5225298E2,6.8953735E1,1.2169287E2,2.682415E1,4.5483276E1,1.7585806E1,4.0981445E0,8.698582E0,0E0,0E0,0E0,0E0,0E0,0E0,0E0,0E0,0E0,0E0,0E0,0E0,0E0,0E0,0E0,0E0,0E0,0E0,0E0,0E0,0E0,0E0,0E0,0E0,0E0,0E0,0E0,0E0,0E0,0E0,0E0,0E0,0E0,0E0,0E0,0E0,0E0,0E0,0E0,0E0,0E0,0E0,0E0,0E0,0E0,0E0,0E0,0E0,0E0,0E0,0E0,0E0,0E0,0E0,0E0,0E0,0E0,0E0,0E0,0E0,0E0,0E0],"parents":[2147483647,0,0,1,1,2,2,3,3,4,4,5,5,6,6,7,7,8,8,9,9,10,10,11,11,12,12,13,13,14,14,15,15,16,16,17,17,18,18,19,19,20,20,21,21,22,22,23,23,24,24,25,25,26,26,27,27,28,28,29,29,30,30,31,31,32,32,34,34,35,35,36,36,37,37,38,38,39,39,40,40,41,41,42,42,43,43,44,44,45,45,46,46,47,47,48,48,49,49,50,50,51,51,52,52,53,53,54,54,55,55,56,56,57,57,58,58,59,59,60,60,61,61,62,62],"right_children":[2,4,6,8,10,12,14,16,18,20,22,24,26,28,30,32,34,36,38,40,42,44,46,48,50,52,54,56,58,60,62,64,66,-1,68,70,72,74,76,78,80,82,84,86,88,90,92,94,96,98,100,102,104,106,108,110,112,114,116,118,120,122,124,-1,-1,-1,-1,-1,-1,-1,-1,-1,-1,-1,-1,-1,-1,-1,-1,-1,-1,-1,-1,-1,-1,-1,-1,-1,-1,-1,-1,-1,-1,-1,-1,-1,-1,-1,-1,-1,-1,-1,-1,-1,-1,-1,-1,-1,-1,-1,-1,-1,-1,-1,-1,-1,-1,-1,-1,-1,-1,-1,-1,-1,-1],"split_conditions":[-1.3995023E0,2.1730068E0,2.869354E0,-7.579451E-1,3.365721E0,3.8745063E-3,4.519149E0,-1.6013789E0,3.8745063E-3,-7.579451E-1,4.2588897E0,-1.3815192E0,9.961569E-1,-9.0130484E-1,5.802267E0,1.519627E0,-1.4747438E0,-2.0792809E-1,9.961569E-1,-1.6603317E0,-1.4368211E0,-7.579451E-1,-1.1832858E0,-1.3240528E0,-7.069499E-1,-1.6013789E0,-6.601529E-1,-1.4639084E0,1.6791705E0,1.6791705E0,1.7072068E0,1.0238446E0,3.8745063E-3,3.513165E-1,-1.4639084E0,-1.3815192E0,1.5674007E0,1.1059237E0,1.4131209E0,-1.0328009E0,-1.6013789E0,1.0814244E0,-9.682836E-1,3.8745063E-3,-1.6603317E0,-1.1880243E0,1.7525371E0,-1.3313841E0,-1.1880243E0,-6.1458534E-1,-6.8613845E-1,1.1422575E0,-6.428176E-1,-7.529748E-1,-1.0446646E0,-1.4747438E0,-1.3313841E0,3.8745063E-3,-1.2674701E0,-6.1458534E-1,3.4500856E-3,6.6767764E0,6.6767764E0,-5.617943E-2,3.7720162E-1,-6.3605636E-1,-1.8700324E-1,-1.8725581E-1,2.004854E-1,-3.493802E-1,-1.8148106E-1,-7.4431725E-2,-4.0455443E-1,4.4572014E-1,3.7433442E-1,6.806092E-2,-8.3835386E-2,-2.5628486E-1,1.1655221E-1,2.0723064E-1,3.0413938E-1,1.09194234E-1,-3.574957E-1,3.5859454E-1,1.954178E-1,1.9505571E-1,3.2475874E-1,1.2491512E-2,2.7221566E-1,3.397818E-1,3.6911944E-1,3.2817942E-1,2.0840114E-1,-3.1281286E-1,-6.0303223E-1,4.284208E-1,-2.8570274E-1,4.9404708E-1,5.7955074E-1,-2.8666395E-1,-2.0736504E-1,7.606456E-1,5.3425753E-1,5.5249727E-1,4.7130373E-1,-2.5011584E-1,-1.3570276E-1,5.2634012E-2,-5.8608674E-2,2.2295906E-1,-1.0585354E-1,3.7131384E-1,2.3291488E-1,-1.18209146E-1,1.24609515E-1,9.2381105E-2,-3.0647758E-1,3.0388868E-1,2.1949507E-1,-9.129476E-1,-5.497857E-2,3.1234783E-1,3.362736E-1,-4.3554342E-1,2.3965962E-1],"split_indices":[15,12,12,16,12,20,12,16,20,16,12,13,20,16,12,17,16,12,20,15,17,16,16,16,13,16,12,16,16,16,15,17,20,0,16,13,14,12,13,18,16,18,17,20,15,16,18,16,16,16,13,12,12,12,16,16,16,20,18,16,9,12,12,0,0,0,0,0,0,0,0,0,0,0,0,0,0,0,0,0,0,0,0,0,0,0,0,0,0,0,0,0,0,0,0,0,0,0,0,0,0,0,0,0,0,0,0,0,0,0,0,0,0,0,0,0,0,0,0,0,0,0,0,0,0],"split_type":[0,0,0,0,0,0,0,0,0,0,0,0,0,0,0,0,0,0,0,0,0,0,0,0,0,0,0,0,0,0,0,0,0,0,0,0,0,0,0,0,0,0,0,0,0,0,0,0,0,0,0,0,0,0,0,0,0,0,0,0,0,0,0,0,0,0,0,0,0,0,0,0,0,0,0,0,0,0,0,0,0,0,0,0,0,0,0,0,0,0,0,0,0,0,0,0,0,0,0,0,0,0,0,0,0,0,0,0,0,0,0,0,0,0,0,0,0,0,0,0,0,0,0,0,0],"sum_hessian":[4.273013E5,9.206532E4,3.35236E5,8.222773E4,9.837592E3,3.2080425E5,1.44317295E4,3.3663848E4,4.856388E4,3.4228682E3,6.414723E3,2.2272252E4,2.98532E5,7.220313E3,7.211417E3,2.5599395E3,3.1103906E4,2.9191284E3,4.564475E4,1.7452769E3,1.6775913E3,1.5828308E3,4.8318926E3,4.0521555E3,1.8220096E4,9.555698E3,2.889763E5,2.7691848E3,4.4511284E3,2.377219E3,4.8341978E3,2.298794E3,2.6114554E2,2.7170366E3,2.838687E4,1.4880293E3,1.4310992E3,2.7784006E3,4.286635E4,2.3725819E1,1.721551E3,1.5039946E2,1.5271918E3,8.8231323E2,7.005176E2,1.7967188E3,3.0351736E3,6.8723065E2,3.3649248E3,3.7326547E2,1.784683E4,2.8261984E2,9.273078E3,3.6681684E4,2.5229462E5,6.615701E2,2.1076147E3,4.347028E3,1.0410039E2,2.3693325E3,7.886431E0,4.8275396E3,6.6584344E0,2.1343232E3,1.6447061E2,1.6159899E1,2.4498564E2,2.006343E3,2.6380527E4,2.5977728E2,1.228252E3,1.364084E3,6.701527E1,2.5380422E3,2.4035832E2,3.6313625E4,6.5527246E3,6.332941E0,1.7392878E1,9.8843666E1,1.6227074E3,1.2954321E2,2.0856247E1,1.4807382E2,1.379118E3,2.3277466E1,8.590358E2,9.694227E0,6.9082336E2,1.6318809E3,1.6483781E2,3.0226228E3,1.2550802E1,4.5995737E2,2.2727332E2,3.463502E1,3.3302898E3,2.116162E2,1.6164929E2,4.205256E3,1.3641575E4,2.3579309E2,4.6826748E1,8.7137244E2,8.401706E3,1.145259E4,2.5229094E4,7.020082E4,1.8209381E5,4.9160617E2,1.6996396E2,4.044242E2,1.7031906E3,1.9369128E2,4.1533364E3,1.7890064E1,8.621032E1,1.3232761E3,1.0460564E3,3.550559E0,4.3358727E0,1.0739253E3,3.7536143E3,1.3771569E0,5.2812777E0],"tree_param":{"num_deleted":"0","num_feature":"21","num_nodes":"125","size_leaf_vector":"1"}},{"base_weights":[8.545806E-3,2.5965548E-1,-1.1016983E-1,2.0792219E-1,8.9057064E-1,-3.799581E-2,-4.503207E-1,2.6064625E-1,-2.7254558E-1,6.865374E-1,1.0167775E0,-1.518881E-1,2.2127912E0,-4.6652788E-1,7.7963513E-1,1.7419867E-1,1.4940407E0,-8.51951E-2,-3.984945E-1,8.5251534E-1,5.1342773E-1,9.175524E-1,1.0787704E0,-4.4579342E-2,-5.461044E-1,1.6707895E0,3.0529554E0,-4.1755554E-1,-8.32067E-1,4.717785E-1,1.0178467E0,2.6107028E-1,-5.8265644E-1,1.2575896E0,2.1177077E0,-1.4293455E-1,1.499726E0,-1.2884765E0,-3.59665E-1,3.6666852E-1,8.8298047E-1,-5.232072E-1,5.4119587E-1,9.981447E-1,7.8465575E-1,3.3163482E-1,1.0623236E0,-1.8009283E-1,2.2421403E0,-5.5906373E-1,6.974666E-1,1.7448134E0,1.2292775E0,3.394559E0,1.5304959E0,-4.9259755E-1,2.3001065E0,-9.245248E-1,-5.800412E-1,-4.7703776E-1,5.6264025E-1,1.0580947E0,8.196875E-1,4.7053397E-2,4.5433584E-1,-2.830427E-1,-1.5198977E-1,3.4901664E-1,4.0190142E-1,4.7026357E-1,8.531854E-1,-1.265445E-1,8.712891E-3,4.0711507E-1,5.84313E-1,-4.4065997E-1,-3.077603E-1,5.4160494E-1,-1.2206355E-1,2.1080701E-1,-1.4018543E-1,-8.674766E-2,2.684621E-1,-6.1484444E-1,-1.0332997E-1,4.4858154E-2,1.8206741E-1,3.0784497E-1,2.6680067E-1,2.6068994E-1,1.6941606E-1,3.014572E-1,3.2263017E-1,-3.9916546E-3,-1.7932136E-1,4.9972597E-1,9.340355E-1,-1.2951657E-1,-1.9797856E-1,8.2679585E-2,2.8745857E-1,5.0231034E-1,6.330914E-1,4.0389022E-1,3.3530822E-1,6.2817645E-1,1.0644375E0,6.8925256E-1,4.0037578E-1,-1.2594284E-1,-2.8333613E-1,5.163792E-1,1.0102735E0,-3.632948E-1,-2.6275745E-1,7.6062703E-1,-2.2338864E-1,5.9052892E-2,-5.410322E-1,-2.0471382E-1,1.8363322E-1,1.856538E-1,3.1934786E-1,6.0858663E-2,2.6754546E-1],"categories":[],"categories_nodes":[],"categories_segments":[],"categories_sizes":[],"default_left":[0,0,0,0,0,0,0,0,0,0,0,0,0,0,0,0,0,0,0,0,0,0,0,0,0,0,0,0,0,0,0,0,0,0,0,0,0,0,0,0,0,0,0,0,0,0,0,0,0,0,0,0,0,0,0,0,0,0,0,0,0,0,0,0,0,0,0,0,0,0,0,0,0,0,0,0,0,0,0,0,0,0,0,0,0,0,0,0,0,0,0,0,0,0,0,0,0,0,0,0,0,0,0,0,0,0,0,0,0,0,0,0,0,0,0,0,0,0,0,0,0,0,0,0,0],"id":6,"left_children":[1,3,5,7,9,11,13,15,17,19,21,23,25,27,29,31,33,35,37,39,41,43,45,47,49,51,53,55,57,59,61,63,65,67,69,71,73,75,77,79,81,83,85,87,89,-1,91,93,95,97,99,101,103,105,107,109,111,113,115,117,119,121,123,-1,-1,-1,-1,-1,-1,-1,-1,-1,-1,-1,-1,-1,-1,-1,-1,-1,-1,-1,-1,-1,-1,-1,-1,-1,-1,-1,-1,-1,-1,-1,-1,-1,-1,-1,-1,-1,-1,-1,-1,-1,-1,-1,-1,-1,-1,-1,-1,-1,-1,-1,-1,-1,-1,-1,-1,-1,-1,-1,-1,-1,-1],"loss_changes":[1.21684795E4,4.2765986E3,6.804296E3,3.067876E3,2.5499463E2,5.861343E4,9.6746094E2,1.1635435E4,2.825498E2,1.0868445E2,3.6734863E1,9.206583E3,5.009715E3,8.568418E2,4.5819122E1,6.705371E3,1.0513701E3,4.408988E2,2.4700464E2,2.8351807E1,5.3867523E1,2.4546265E1,4.7998047E-1,5.3011902E4,7.508506E2,2.1670898E2,2.240129E3,8.613264E3,1.312649E2,2.4172474E1,1.9645691E0,1.1950501E4,2.8756104E2,3.853418E1,7.8004297E2,2.2289801E2,8.181335E0,1.2656616E1,7.022618E2,3.2841568E1,2.5662842E1,1.2683662E1,4.65708E1,3.5622559E0,1.6150452E1,0E0,6.9506836E-1,1.1249783E4,4.8013516E3,5.916631E2,5.2610977E1,1.4406055E2,1.10946045E1,6.966875E2,1.1609314E2,1.3512119E3,6.9545605E2,5.660547E1,7.8170276E2,2.2498257E1,1.6031212E1,1.609497E-1,2.6835136E0,0E0,0E0,0E0,0E0,0E0,0E0,0E0,0E0,0E0,0E0,0E0,0E0,0E0,0E0,0E0,0E0,0E0,0E0,0E0,0E0,0E0,0E0,0E0,0E0,0E0,0E0,0E0,0E0,0E0,0E0,0E0,0E0,0E0,0E0,0E0,0E0,0E0,0E0,0E0,0E0,0E0,0E0,0E0,0E0,0E0,0E0,0E0,0E0,0E0,0E0,0E0,0E0,0E0,0E0,0E0,0E0,0E0,0E0,0E0,0E0,0E0,0E0],"parents":[2147483647,0,0,1,1,2,2,3,3,4,4,5,5,6,6,7,7,8,8,9,9,10,10,11,11,12,12,13,13,14,14,15,15,16,16,17,17,18,18,19,19,20,20,21,21,22,22,23,23,24,24,25,25,26,26,27,27,28,28,29,29,30,30,31,31,32,32,33,33,34,34,35,35,36,36,37,37,38,38,39,39,40,40,41,41,42,42,43,43,44,44,46,46,47,47,48,48,49,49,50,50,51,51,52,52,53,53,54,54,55,55,56,56,57,57,58,58,59,59,60,60,61,61,62,62],"right_children":[2,4,6,8,10,12,14,16,18,20,22,24,26,28,30,32,34,36,38,40,42,44,46,48,50,52,54,56,58,60,62,64,66,68,70,72,74,76,78,80,82,84,86,88,90,-1,92,94,96,98,100,102,104,106,108,110,112,114,116,118,120,122,124,-1,-1,-1,-1,-1,-1,-1,-1,-1,-1,-1,-1,-1,-1,-1,-1,-1,-1,-1,-1,-1,-1,-1,-1,-1,-1,-1,-1,-1,-1,-1,-1,-1,-1,-1,-1,-1,-1,-1,-1,-1,-1,-1,-1,-1,-1,-1,-1,-1,-1,-1,-1,-1,-1,-1,-1,-1,-1,-1,-1,-1,-1],"split_conditions":[-1.0626302E0,2.3756363E0,1.4131209E0,1.519627E0,3.567566E0,7.292011E-1,4.2588897E0,1.0238446E0,-6.1458534E-1,-6.1458534E-1,5.086886E0,7.064306E-1,-6.1458534E-1,1.519627E0,5.802267E0,1.0220449E0,-1.3995023E0,-7.3972577E-1,-5.904596E-1,-1.6013789E0,-5.904596E-1,-4.712256E-1,-1.1832858E0,3.5566803E-2,4.2588897E0,1.9247167E0,2.0024943E0,1.0238446E0,4.2312243E-3,-1.0637484E0,8.1901205E-1,5.503369E-1,-1.3815192E0,-7.579451E-1,-6.1458534E-1,-1.3240528E0,-1.3995023E0,-1.4042218E0,-4.712256E-1,-1.3995023E0,-1.6603317E0,-1.6097648E0,-1.3815192E0,-1.3782777E0,-1.3995023E0,3.3163482E-1,5.802267E0,-2.596801E-4,-6.1458534E-1,-4.712256E-1,5.4241114E0,-9.0130484E-1,3.365721E0,9.961569E-1,2.4865973E0,1.0220449E0,-6.1458534E-1,-1.2621863E0,9.9606425E-1,-4.114636E-2,3.8745063E-3,-1.5697156E0,-1.4368211E0,4.7053397E-2,4.5433584E-1,-2.830427E-1,-1.5198977E-1,3.4901664E-1,4.0190142E-1,4.7026357E-1,8.531854E-1,-1.265445E-1,8.712891E-3,4.0711507E-1,5.84313E-1,-4.4065997E-1,-3.077603E-1,5.4160494E-1,-1.2206355E-1,2.1080701E-1,-1.4018543E-1,-8.674766E-2,2.684621E-1,-6.1484444E-1,-1.0332997E-1,4.4858154E-2,1.8206741E-1,3.0784497E-1,2.6680067E-1,2.6068994E-1,1.6941606E-1,3.014572E-1,3.2263017E-1,-3.9916546E-3,-1.7932136E-1,4.9972597E-1,9.340355E-1,-1.2951657E-1,-1.9797856E-1,8.2679585E-2,2.8745857E-1,5.0231034E-1,6.330914E-1,4.0389022E-1,3.3530822E-1,6.2817645E-1,1.0644375E0,6.8925256E-1,4.0037578E-1,-1.2594284E-1,-2.8333613E-1,5.163792E-1,1.0102735E0,-3.632948E-1,-2.6275745E-1,7.6062703E-1,-2.2338864E-1,5.9052892E-2,-5.410322E-1,-2.0471382E-1,1.8363322E-1,1.856538E-1,3.1934786E-1,6.0858663E-2,2.6754546E-1],"split_indices":[15,12,13,17,12,13,12,17,16,16,12,13,16,17,12,17,15,16,16,16,16,16,16,13,12,12,12,17,1,14,16,17,13,16,16,16,15,15,16,15,15,15,13,15,15,0,12,13,16,16,12,16,12,20,12,17,16,18,1,16,20,18,17,0,0,0,0,0,0,0,0,0,0,0,0,0,0,0,0,0,0,0,0,0,0,0,0,0,0,0,0,0,0,0,0,0,0,0,0,0,0,0,0,0,0,0,0,0,0,0,0,0,0,0,0,0,0,0,0,0,0,0,0,0,0],"split_type":[0,0,0,0,0,0,0,0,0,0,0,0,0,0,0,0,0,0,0,0,0,0,0,0,0,0,0,0,0,0,0,0,0,0,0,0,0,0,0,0,0,0,0,0,0,0,0,0,0,0,0,0,0,0,0,0,0,0,0,0,0,0,0,0,0,0,0,0,0,0,0,0,0,0,0,0,0,0,0,0,0,0,0,0,0,0,0,0,0,0,0,0,0,0,0,0,0,0,0,0,0,0,0,0,0,0,0,0,0,0,0,0,0,0,0,0,0,0,0,0,0,0,0,0,0],"sum_hessian":[4.0819047E5,1.3103065E5,2.771598E5,1.2110196E5,9.928692E3,2.2864623E5,4.851359E4,1.0912734E5,1.1974613E4,3.7968792E3,6.1318135E3,2.1763461E5,1.1011617E4,4.788325E4,6.303399E2,1.0198074E5,7.146603E3,4.8145674E3,7.1600464E3,1.9363641E3,1.860515E3,2.3639338E3,3.7678796E3,1.7106931E5,4.6565297E4,6.6953457E3,4.316272E3,4.222799E4,5.6552646E3,2.7627362E2,3.5406625E2,9.148121E4,1.0499531E4,5.1841504E3,1.9624523E3,4.6462134E3,1.6835396E2,2.9798438E2,6.862062E3,1.1502488E2,1.8213394E3,4.8071556E1,1.8124435E3,1.4674939E3,8.964399E2,1.4117063E3,2.3561733E3,1.614996E5,9.56972E3,4.6085582E4,4.7971277E2,5.731457E3,9.638885E2,3.524278E3,7.919936E2,4.1094086E4,1.1339003E3,4.1354653E3,1.5197988E3,2.3773256E1,2.5250037E2,2.906855E2,6.338075E1,8.44591E4,7.0221123E3,1.8252499E3,8.674281E3,2.420939E3,2.7632114E3,1.118384E3,8.440683E2,1.7717207E3,2.8744927E3,1.3074344E2,3.761053E1,1.7392163E2,1.2406273E2,1.4565565E2,6.7164062E3,8.210146E1,3.2923416E1,1.8060392E1,1.8032789E3,3.9431355E0,4.412842E1,2.6080887E2,1.5516345E3,1.1603999E3,3.07094E2,6.458911E2,2.5054875E2,4.5210516E2,1.9040681E3,1.1541102E5,4.6088574E4,5.76138E3,3.8083396E3,2.0371643E4,2.5713941E4,1.8401959E2,2.9569318E2,4.8099536E3,9.215035E2,4.6507535E2,4.9881317E2,3.7371436E2,3.1505637E3,1.5895126E2,6.330423E2,3.5394434E4,5.6996514E3,7.369158E2,3.9698447E2,5.970822E2,3.5383833E3,7.5538155E1,1.4442607E3,1.6328922E1,7.4443345E0,9.160676E0,2.4333969E2,5.57631E0,2.851092E2,7.0348334E0,5.6345917E1],"tree_param":{"num_deleted":"0","num_feature":"21","num_nodes":"125","size_leaf_vector":"1"}},{"base_weights":[6.1817393E-3,-5.6784745E-2,3.666341E-1,-3.6735004E-1,1.0731096E-2,2.710943E-1,9.428989E-1,-1.2635028E-1,-4.543373E-1,1.9544276E0,-1.02653995E-1,-9.2125684E-2,3.4240952E-1,7.6066285E-1,1.0317935E0,-4.6612337E-1,-4.5834914E-2,-1.10961795E-1,-5.055191E-1,1.5390188E0,2.4951158E0,-5.491161E-1,1.8991731E-2,3.2514507E-1,-1.9129632E-1,1.5975686E0,2.2844958E-1,9.2847204E-1,5.782949E-1,9.5634633E-1,1.0659682E0,-7.4985355E-1,-3.5569477E-1,-6.8841136E-1,-5.5280062E-3,-5.288705E-1,1.7988273E0,-1.5392699E0,-4.4375145E-1,1.198677E0,1.7016667E0,1.4932696E0,3.3076797E0,-2.185202E-1,-5.9743375E-1,1.9949481E0,-1.2043716E-1,6.3212675E-1,8.988478E-2,-1.2624839E-1,-7.658423E-1,1.2139512E0,1.7950954E0,-2.6324508E-1,3.4397882E-1,6.116628E-1,9.4913965E-1,9.016445E-1,4.3685073E-1,1.0392326E0,8.648229E-1,1.0669892E0,8.083892E-1,-3.1299007E-1,-9.95037E-2,-9.16057E-2,-2.931356E-1,-1.6428149E-1,-3.763178E-1,3.744269E-1,-1.9573057E-2,-2.406881E-1,-9.3843326E-2,4.788104E-1,5.453882E-1,-4.8841965E-1,-3.6406994E-1,4.3001056E-1,-1.4944836E-1,3.541172E-1,4.0769333E-1,7.4137276E-1,4.9987727E-1,4.3043274E-1,6.5489495E-1,4.218773E-1,1.0631107E0,-1.8830739E-1,4.7614175E-1,-4.961026E-1,-1.6204554E-1,4.082109E-1,7.112756E-1,-1.436776E-1,5.122682E-3,-1.9197356E-2,2.0559947E-1,-4.6656254E-1,3.9776057E-2,-6.373279E-2,5.368674E-1,-3.0205908E-1,-5.8666047E-2,3.391586E-1,3.8618746E-1,4.4157E-1,6.668072E-1,-9.02642E-3,-1.3009158E-1,4.9107888E-1,5.9458856E-2,-3.3687145E-4,2.0636116E-1,1.6731957E-1,2.8757372E-1,2.732192E-1,-1.2465565E-1,-2.3687308E-1,1.4505556E-1,3.123755E-1,1.3202079E-1,-7.7635064E-3,2.6623508E-1,3.2030934E-1,2.2618642E-1,2.8561106E-1,-1.0326225E-1],"categories":[],"categories_nodes":[],"categories_segments":[],"categories_sizes":[],"default_left":[0,0,0,0,0,0,0,0,0,0,0,0,0,0,0,0,0,0,0,0,0,0,0,0,0,0,0,0,0,0,0,0,0,0,0,0,0,0,0,0,0,0,0,0,0,0,0,0,0,0,0,0,0,0,0,0,0,0,0,0,0,0,0,0,0,0,0,0,0,0,0,0,0,0,0,0,0,0,0,0,0,0,0,0,0,0,0,0,0,0,0,0,0,0,0,0,0,0,0,0,0,0,0,0,0,0,0,0,0,0,0,0,0,0,0,0,0,0,0,0,0,0,0,0,0,0,0],"id":7,"left_children":[1,3,5,7,9,11,13,15,17,19,21,23,25,27,29,31,33,35,37,39,41,43,45,47,49,51,53,55,57,59,61,63,65,67,69,71,73,75,77,79,81,83,85,87,89,91,93,95,97,99,101,103,105,107,109,111,113,115,117,119,121,123,125,-1,-1,-1,-1,-1,-1,-1,-1,-1,-1,-1,-1,-1,-1,-1,-1,-1,-1,-1,-1,-1,-1,-1,-1,-1,-1,-1,-1,-1,-1,-1,-1,-1,-1,-1,-1,-1,-1,-1,-1,-1,-1,-1,-1,-1,-1,-1,-1,-1,-1,-1,-1,-1,-1,-1,-1,-1,-1,-1,-1,-1,-1,-1,-1],"loss_changes":[8.927774E3,7.021381E3,3.2203052E3,1.2535356E3,6.0620426E4,1.2998076E3,1.3397363E2,4.3387823E2,7.7213574E2,3.4015156E3,1.4115409E4,3.408753E2,5.9991245E3,8.30448E1,1.3389648E1,9.493054E1,3.3212372E2,4.55094E3,2.4409111E3,4.7272266E2,5.356297E3,8.888281E2,5.6272926E4,1.14188965E2,2.4862375E2,2.6235254E2,2.1844365E3,8.72168E0,5.9586853E1,1.2391113E1,1.4648438E-1,1.0399942E2,6.818283E1,5.963202E1,9.0345496E2,2.7611365E2,1.0708008E0,6.0364746E1,3.6860635E3,6.5356445E0,1.5395703E2,1.15930664E2,1.6265898E3,5.245217E3,2.936834E3,3.2070547E3,9.405367E3,2.5457245E1,6.320071E1,9.877741E2,9.2808014E1,5.8234863E0,3.149077E2,2.90665E2,5.8688164E3,4.195225E0,4.3863525E0,5.1435547E0,5.271147E1,6.478882E-1,1.692279E1,4.248047E-2,3.5194397E0,0E0,0E0,0E0,0E0,0E0,0E0,0E0,0E0,0E0,0E0,0E0,0E0,0E0,0E0,0E0,0E0,0E0,0E0,0E0,0E0,0E0,0E0,0E0,0E0,0E0,0E0,0E0,0E0,0E0,0E0,0E0,0E0,0E0,0E0,0E0,0E0,0E0,0E0,0E0,0E0,0E0,0E0,0E0,0E0,0E0,0E0,0E0,0E0,0E0,0E0,0E0,0E0,0E0,0E0,0E0,0E0,0E0,0E0,0E0,0E0,0E0,0E0,0E0,0E0],"parents":[2147483647,0,0,1,1,2,2,3,3,4,4,5,5,6,6,7,7,8,8,9,9,10,10,11,11,12,12,13,13,14,14,15,15,16,16,17,17,18,18,19,19,20,20,21,21,22,22,23,23,24,24,25,25,26,26,27,27,28,28,29,29,30,30,31,31,32,32,33,33,34,34,35,35,36,36,37,37,38,38,39,39,40,40,41,41,42,42,43,43,44,44,45,45,46,46,47,47,48,48,49,49,50,50,51,51,52,52,53,53,54,54,55,55,56,56,57,57,58,58,59,59,60,60,61,61,62,62],"right_children":[2,4,6,8,10,12,14,16,18,20,22,24,26,28,30,32,34,36,38,40,42,44,46,48,50,52,54,56,58,60,62,64,66,68,70,72,74,76,78,80,82,84,86,88,90,92,94,96,98,100,102,104,106,108,110,112,114,116,118,120,122,124,126,-1,-1,-1,-1,-1,-1,-1,-1,-1,-1,-1,-1,-1,-1,-1,-1,-1,-1,-1,-1,-1,-1,-1,-1,-1,-1,-1,-1,-1,-1,-1,-1,-1,-1,-1,-1,-1,-1,-1,-1,-1,-1,-1,-1,-1,-1,-1,-1,-1,-1,-1,-1,-1,-1,-1,-1,-1,-1,-1,-1,-1,-1,-1,-1],"split_conditions":[1.0364083E0,-1.3815192E0,4.2588897E0,-1.1562058E0,-7.069499E-1,-1.3815192E0,5.4241114E0,-6.085263E-1,-1.3313841E0,-6.1458534E-1,-6.8613845E-1,-1.4090726E0,-7.069499E-1,-7.579451E-1,6.6767764E0,-7.393597E-1,3.8745063E-3,-1.4639084E0,-1.3240528E0,-1.3339994E0,-1.3339994E0,-1.3313841E0,-2.596801E-4,-7.579451E-1,1.519627E0,-1.3126682E0,-6.8613845E-1,-1.6013789E0,-1.2984743E0,-9.0130484E-1,1.6791705E0,3.6244674E-3,1.4169807E0,7.506149E-1,9.961569E-1,-1.6013789E0,9.961569E-1,3.568292E-3,-1.1880243E0,-1.3995023E0,-1.6013789E0,-1.3995023E0,9.961569E-1,-1.4639084E0,-1.3240528E0,-1.3339994E0,3.5566803E-2,-1.6013789E0,-7.3972577E-1,1.0238446E0,4.351537E-3,-7.579451E-1,-6.1458534E-1,-6.1458534E-1,-2.596801E-4,-1.3815192E0,3.8745063E-3,1.6791705E0,3.8745063E-3,2.3841867E0,3.8745063E-3,1.6697766E0,1.0531104E0,-3.1299007E-1,-9.95037E-2,-9.16057E-2,-2.931356E-1,-1.6428149E-1,-3.763178E-1,3.744269E-1,-1.9573057E-2,-2.406881E-1,-9.3843326E-2,4.788104E-1,5.453882E-1,-4.8841965E-1,-3.6406994E-1,4.3001056E-1,-1.4944836E-1,3.541172E-1,4.0769333E-1,7.4137276E-1,4.9987727E-1,4.3043274E-1,6.5489495E-1,4.218773E-1,1.0631107E0,-1.8830739E-1,4.7614175E-1,-4.961026E-1,-1.6204554E-1,4.082109E-1,7.112756E-1,-1.436776E-1,5.122682E-3,-1.9197356E-2,2.0559947E-1,-4.6656254E-1,3.9776057E-2,-6.373279E-2,5.368674E-1,-3.0205908E-1,-5.8666047E-2,3.391586E-1,3.8618746E-1,4.4157E-1,6.668072E-1,-9.02642E-3,-1.3009158E-1,4.9107888E-1,5.9458856E-2,-3.3687145E-4,2.0636116E-1,1.6731957E-1,2.8757372E-1,2.732192E-1,-1.2465565E-1,-2.3687308E-1,1.4505556E-1,3.123755E-1,1.3202079E-1,-7.7635064E-3,2.6623508E-1,3.2030934E-1,2.2618642E-1,2.8561106E-1,-1.0326225E-1],"split_indices":[12,13,12,15,13,13,12,12,16,16,13,15,13,16,12,12,20,16,16,15,15,16,13,16,17,15,13,16,15,16,16,11,18,14,20,16,20,8,16,15,16,15,20,16,16,15,13,16,16,17,3,16,16,16,13,13,20,16,20,14,20,15,18,0,0,0,0,0,0,0,0,0,0,0,0,0,0,0,0,0,0,0,0,0,0,0,0,0,0,0,0,0,0,0,0,0,0,0,0,0,0,0,0,0,0,0,0,0,0,0,0,0,0,0,0,0,0,0,0,0,0,0,0,0,0,0,0],"split_type":[0,0,0,0,0,0,0,0,0,0,0,0,0,0,0,0,0,0,0,0,0,0,0,0,0,0,0,0,0,0,0,0,0,0,0,0,0,0,0,0,0,0,0,0,0,0,0,0,0,0,0,0,0,0,0,0,0,0,0,0,0,0,0,0,0,0,0,0,0,0,0,0,0,0,0,0,0,0,0,0,0,0,0,0,0,0,0,0,0,0,0,0,0,0,0,0,0,0,0,0,0,0,0,0,0,0,0,0,0,0,0,0,0,0,0,0,0,0,0,0,0,0,0,0,0,0,0],"sum_hessian":[3.933542E5,3.348593E5,5.849486E4,5.979671E4,2.7506262E5,5.017735E4,8.317508E3,1.5859669E4,4.3937043E4,1.516039E4,2.5990222E5,8.234979E3,4.194237E4,2.730162E3,5.5873457E3,3.0373462E3,1.2822322E4,5.6999004E3,3.823714E4,8.575618E3,6.584771E3,5.5650645E4,2.0425158E5,1.5808999E3,6.654078E3,3.4900298E3,3.8452344E4,1.4197043E3,1.3104579E3,1.7508937E3,3.836452E3,8.4932904E2,2.188017E3,7.5588324E2,1.2066439E4,4.6771484E3,1.02275183E3,2.1545405E3,3.60826E4,2.775739E3,5.7998794E3,2.950189E3,3.634582E3,7.097069E3,4.855358E4,1.3461716E4,1.9078986E5,6.851666E2,8.9573334E2,5.9784414E3,6.7563696E2,1.1886649E3,2.3013647E3,7.3156245E3,3.1136719E4,8.881881E1,1.3308856E3,3.9715768E2,9.133002E2,9.133667E2,8.3752704E2,3.8181743E3,1.8277555E1,4.9821823E2,3.5111078E2,2.0254258E3,1.6259128E2,6.068715E2,1.4901169E2,5.477401E2,1.1518699E4,2.0633132E3,2.6138352E3,9.545517E1,9.272967E2,1.689845E3,4.646956E2,1.01570593E3,3.5066895E4,2.4990276E3,2.7671152E2,2.5209563E2,5.5477837E3,2.7223862E3,2.2780266E2,4.02109E2,3.2324731E3,5.7864775E3,1.3105913E3,2.4962644E3,4.6057312E4,5.0117466E3,8.44997E3,5.2894457E4,1.378954E5,4.8635086E1,6.3653156E2,2.176636E1,8.73967E2,5.721896E3,2.5654532E2,4.7438293E2,2.0125406E2,5.637869E2,6.248779E2,1.3132184E3,9.881465E2,3.0894158E3,4.2262085E3,3.153956E3,2.7982762E4,9.932992E0,7.888582E1,3.275542E1,1.2981301E3,3.9474323E2,2.4144635E0,3.2895264E1,8.804049E2,9.09564E2,3.8026443E0,2.074577E1,8.1678125E2,3.8071455E3,1.1028898E1,1.6406792E1,1.8707639E0],"tree_param":{"num_deleted":"0","num_feature":"21","num_nodes":"127","size_leaf_vector":"1"}},{"base_weights":[6.1014006E-3,6.780528E-2,-2.8992012E-1,-2.5407994E-2,1.537393E0,-1.2775677E-1,-4.2685544E-1,7.7082805E-2,-4.206865E-1,1.3430973E0,1.7281047E0,-1.693478E-1,2.4504879E0,-1.0971957E0,-3.9185786E-1,-3.367932E-2,1.5760398E0,-2.2634952E-1,-5.1801693E-1,1.152328E0,1.4305586E0,1.3848433E0,1.9169071E0,-1.183625E-1,-1.0132703E0,1.5052757E0,3.199677E0,-1.446429E0,-1.0147477E0,2.4143672E0,-4.295708E-1,7.3588185E-2,-3.2541996E-1,1.34675E0,1.791612E0,-3.149991E-1,1.2922109E0,-4.9578527E-1,-1.0645139E0,1.1636897E0,3.1926832E-1,1.472215E0,1.1649457E0,1.4245057E0,1.146E0,1.9954948E0,1.2455562E0,-1.623093E-1,1.7325832E0,-1.4271401E0,-9.3911755E-1,1.4166762E0,2.0581555E0,3.4048438E0,1.3619537E0,-1.4708217E0,4.5036826E-1,-1.001804E0,-1.5136931E0,1.5082363E0,3.0722988E0,-9.920807E-1,-3.9691806E-1,-2.4874566E-2,4.7259852E-1,-5.0348137E-2,-1.375828E-1,3.454746E-1,4.3015665E-1,4.1371208E-1,6.073325E-1,-6.5318935E-2,-2.6936904E-1,3.2957572E-1,4.0694988E-1,-1.5457481E-1,5.7672775E-1,-4.348642E-1,-2.9903644E-1,3.765819E-1,3.4689376E-1,5.7731205E-1,4.340487E-1,3.703644E-1,3.2161042E-1,5.000855E-1,4.2350283E-1,3.6350045E-1,3.2012904E-1,7.4972093E-1,5.682647E-1,4.0927133E-1,3.2471797E-1,-3.3285175E-2,-2.889641E-1,4.0468773E-1,5.959311E-1,-4.729093E-1,-1.9646414E-1,-2.988271E-1,-2.3297825E-1,4.3539017E-1,3.2222623E-1,6.3664997E-1,2.2317947E-1,7.14786E-1,1.0510824E0,4.5101056E-1,2.9583356E-1,-4.6846312E-1,-2.8462127E-1,2.2935268E-1,-5.8148127E-2,-3.092727E-1,-2.6307577E-1,-5.4055446E-1,1.083293E-1,4.3225968E-1,6.045479E-1,9.9904567E-1,4.5420453E-1,-3.2103914E-1,-2.3266253E-1,7.3464715E-1,-1.2866484E-1],"categories":[],"categories_nodes":[],"categories_segments":[],"categories_sizes":[],"default_left":[0,0,0,0,0,0,0,0,0,0,0,0,0,0,0,0,0,0,0,0,0,0,0,0,0,0,0,0,0,0,0,0,0,0,0,0,0,0,0,0,0,0,0,0,0,0,0,0,0,0,0,0,0,0,0,0,0,0,0,0,0,0,0,0,0,0,0,0,0,0,0,0,0,0,0,0,0,0,0,0,0,0,0,0,0,0,0,0,0,0,0,0,0,0,0,0,0,0,0,0,0,0,0,0,0,0,0,0,0,0,0,0,0,0,0,0,0,0,0,0,0,0,0,0,0],"id":8,"left_children":[1,3,5,7,9,11,13,15,17,19,21,23,25,27,29,31,33,35,37,39,41,43,45,47,49,51,53,55,57,59,61,63,65,67,69,71,73,75,77,79,-1,81,83,85,87,89,91,93,95,97,99,101,103,105,107,109,111,113,115,117,119,121,123,-1,-1,-1,-1,-1,-1,-1,-1,-1,-1,-1,-1,-1,-1,-1,-1,-1,-1,-1,-1,-1,-1,-1,-1,-1,-1,-1,-1,-1,-1,-1,-1,-1,-1,-1,-1,-1,-1,-1,-1,-1,-1,-1,-1,-1,-1,-1,-1,-1,-1,-1,-1,-1,-1,-1,-1,-1,-1,-1,-1,-1,-1],"loss_changes":[6.941421E3,4.307841E4,1.4555498E3,1.1980321E4,6.927031E2,3.2186707E3,8.3333203E2,3.898854E4,1.1515889E3,1.5344922E2,6.1058203E2,1.270771E3,3.3262793E2,4.9290527E1,3.5757354E3,6.843267E3,7.9627344E2,2.735957E3,4.9236914E2,1.6914062E0,6.875879E1,3.0208496E1,3.1945508E2,2.266092E3,5.0299316E1,7.49765E0,9.525415E1,1.6131592E1,7.715454E0,2.624912E2,6.118013E2,3.7578066E4,1.2338535E3,1.3153027E2,7.969258E2,1.0884381E3,1.2464355E1,1.835959E3,3.9886353E1,2.9296875E-1,0E0,6.037207E1,4.291626E0,6.600586E0,1.2138672E0,2.737793E2,1.0957214E1,1.1191284E3,6.0240967E1,2.820929E1,1.2466553E1,6.526489E-1,7.05513E-1,1.56467285E1,2.0267487E-2,1.4164307E1,1.1621609E0,4.1713867E0,1.9120804E1,3.6004944E0,9.887427E1,3.0063843E1,2.866705E3,0E0,0E0,0E0,0E0,0E0,0E0,0E0,0E0,0E0,0E0,0E0,0E0,0E0,0E0,0E0,0E0,0E0,0E0,0E0,0E0,0E0,0E0,0E0,0E0,0E0,0E0,0E0,0E0,0E0,0E0,0E0,0E0,0E0,0E0,0E0,0E0,0E0,0E0,0E0,0E0,0E0,0E0,0E0,0E0,0E0,0E0,0E0,0E0,0E0,0E0,0E0,0E0,0E0,0E0,0E0,0E0,0E0,0E0,0E0,0E0,0E0,0E0],"parents":[2147483647,0,0,1,1,2,2,3,3,4,4,5,5,6,6,7,7,8,8,9,9,10,10,11,11,12,12,13,13,14,14,15,15,16,16,17,17,18,18,19,19,20,20,21,21,22,22,23,23,24,24,25,25,26,26,27,27,28,28,29,29,30,30,31,31,32,32,33,33,34,34,35,35,36,36,37,37,38,38,39,39,41,41,42,42,43,43,44,44,45,45,46,46,47,47,48,48,49,49,50,50,51,51,52,52,53,53,54,54,55,55,56,56,57,57,58,58,59,59,60,60,61,61,62,62],"right_children":[2,4,6,8,10,12,14,16,18,20,22,24,26,28,30,32,34,36,38,40,42,44,46,48,50,52,54,56,58,60,62,64,66,68,70,72,74,76,78,80,-1,82,84,86,88,90,92,94,96,98,100,102,104,106,108,110,112,114,116,118,120,122,124,-1,-1,-1,-1,-1,-1,-1,-1,-1,-1,-1,-1,-1,-1,-1,-1,-1,-1,-1,-1,-1,-1,-1,-1,-1,-1,-1,-1,-1,-1,-1,-1,-1,-1,-1,-1,-1,-1,-1,-1,-1,-1,-1,-1,-1,-1,-1,-1,-1,-1,-1,-1,-1,-1,-1,-1,-1,-1,-1,-1,-1,-1],"split_conditions":[1.4131209E0,7.292011E-1,-4.712256E-1,7.064306E-1,-7.579451E-1,-5.904596E-1,-4.5069972E-1,3.5566803E-2,-9.0130484E-1,-1.3995023E0,-1.3995023E0,-6.1458534E-1,-1.2872117E0,-1.2217087E0,-3.2786584E-1,-2.596801E-4,-7.579451E-1,-1.0359912E0,1.6791705E0,2.1730068E0,1.6551533E0,1.3913614E0,2.3756363E0,-7.3972577E-1,-1.3889525E0,-1.3995023E0,2.3756363E0,3.9979978E0,2.3756363E0,-1.3126682E0,-2.8854877E-1,-6.8613845E-1,-4.712256E-1,-1.3995023E0,-1.3995023E0,-1.0446646E0,-1.3995023E0,1.5386798E0,-1.4042218E0,-1.6013789E0,3.1926832E-1,-1.6013789E0,3.1872053E0,3.8745063E-3,2.736425E0,-1.0626302E0,3.7664926E0,-7.579451E-1,-1.2872117E0,1.0238446E0,5.503369E-1,1.6551533E0,1.7154529E0,9.924213E-1,3.9979978E0,1.0238446E0,-3.3909753E-1,3.568292E-3,1.4878176E0,-1.3995023E0,2.2699232E0,5.503369E-1,-1.845061E-1,-2.4874566E-2,4.7259852E-1,-5.0348137E-2,-1.375828E-1,3.454746E-1,4.3015665E-1,4.1371208E-1,6.073325E-1,-6.5318935E-2,-2.6936904E-1,3.2957572E-1,4.0694988E-1,-1.5457481E-1,5.7672775E-1,-4.348642E-1,-2.9903644E-1,3.765819E-1,3.4689376E-1,5.7731205E-1,4.340487E-1,3.703644E-1,3.2161042E-1,5.000855E-1,4.2350283E-1,3.6350045E-1,3.2012904E-1,7.4972093E-1,5.682647E-1,4.0927133E-1,3.2471797E-1,-3.3285175E-2,-2.889641E-1,4.0468773E-1,5.959311E-1,-4.729093E-1,-1.9646414E-1,-2.988271E-1,-2.3297825E-1,4.3539017E-1,3.2222623E-1,6.3664997E-1,2.2317947E-1,7.14786E-1,1.0510824E0,4.5101056E-1,2.9583356E-1,-4.6846312E-1,-2.8462127E-1,2.2935268E-1,-5.8148127E-2,-3.092727E-1,-2.6307577E-1,-5.4055446E-1,1.083293E-1,4.3225968E-1,6.045479E-1,9.9904567E-1,4.5420453E-1,-3.2103914E-1,-2.3266253E-1,7.3464715E-1,-1.2866484E-1],"split_indices":[13,13,16,13,16,16,16,13,16,15,15,16,15,15,16,13,16,16,16,12,12,12,12,16,15,15,12,12,12,15,16,13,16,15,15,16,15,16,15,16,0,16,12,20,12,15,12,16,15,17,17,12,12,20,12,17,19,8,15,15,12,17,16,0,0,0,0,0,0,0,0,0,0,0,0,0,0,0,0,0,0,0,0,0,0,0,0,0,0,0,0,0,0,0,0,0,0,0,0,0,0,0,0,0,0,0,0,0,0,0,0,0,0,0,0,0,0,0,0,0,0,0,0,0,0],"split_type":[0,0,0,0,0,0,0,0,0,0,0,0,0,0,0,0,0,0,0,0,0,0,0,0,0,0,0,0,0,0,0,0,0,0,0,0,0,0,0,0,0,0,0,0,0,0,0,0,0,0,0,0,0,0,0,0,0,0,0,0,0,0,0,0,0,0,0,0,0,0,0,0,0,0,0,0,0,0,0,0,0,0,0,0,0,0,0,0,0,0,0,0,0,0,0,0,0,0,0,0,0,0,0,0,0,0,0,0,0,0,0,0,0,0,0,0,0,0,0,0,0,0,0,0,0],"sum_hessian":[3.8002325E5,3.1447388E5,6.554939E4,2.95718E5,1.8755873E4,3.001114E4,3.5538254E4,2.3483025E5,6.0887754E4,9.294619E3,9.461254E3,2.9535621E4,4.7552023E2,1.7618378E3,3.3776414E4,2.1867288E5,1.6157372E4,2.0319566E4,4.0568188E4,2.9262034E3,6.368416E3,3.3602761E3,6.100977E3,2.7853973E4,1.681648E3,2.115845E2,2.6393573E2,3.3333887E2,1.4284989E3,4.470672E2,3.3329348E4,1.5988642E5,5.8786457E4,7.833087E3,8.324285E3,1.919954E4,1.1200266E3,3.8984207E4,1.5839833E3,2.5811228E3,3.450804E2,5.501123E3,8.6729297E2,2.877477E3,4.8279926E2,5.459876E3,6.411012E2,2.720887E4,6.4510486E2,2.5274591E2,1.4289021E3,1.854313E2,2.6153202E1,2.3666164E2,2.7274078E1,3.293283E2,4.010568E0,1.3953096E3,3.3189423E1,1.8944627E2,2.5762094E2,1.8269558E3,3.1502393E4,1.4479734E5,1.5089067E4,2.6927479E4,3.1858979E4,2.4215637E3,5.411523E3,3.0054983E3,5.318787E3,1.6455027E4,2.7445117E3,2.8369122E2,8.363353E2,3.8673707E4,3.104966E2,2.3388742E2,1.3500958E3,1.7980722E2,2.4013157E3,2.884607E2,5.212662E3,4.8881854E2,3.7847443E2,1.3813742E2,2.7393396E3,2.5566393E2,2.2713533E2,9.1025995E2,4.549616E3,3.668794E2,2.742218E2,2.557029E4,1.6385796E3,2.5940536E2,3.8569946E2,2.109439E2,4.180202E1,1.0542166E3,3.746856E2,1.6547133E2,1.9959972E1,2.435233E1,1.800873E0,2.3064522E1,2.135971E2,1.76377E1,9.636379E0,2.7887717E2,5.0451153E1,2.5703678E0,1.4402004E0,1.1257048E3,2.6960464E2,2.8801538E1,4.3878846E0,1.7061385E2,1.8832432E1,2.2006853E2,3.75524E1,1.3400157E3,4.869401E2,3.4907968E2,3.1153312E4],"tree_param":{"num_deleted":"0","num_feature":"21","num_nodes":"125","size_leaf_vector":"1"}},{"base_weights":[8.4972745E-3,-3.3601046E-1,5.590702E-2,-5.392903E-1,-2.7190733E-1,1.556266E0,-2.061882E-2,-6.8914074E-1,-4.6226823E-1,-2.9062638E-1,4.7168294E-1,1.2146049E0,1.7130595E0,-5.890222E-1,6.934802E-2,-7.586239E-1,-5.606243E-1,-3.9529982E-1,-6.675029E-1,-4.5945376E-2,-3.3929905E-1,2.352365E-1,9.143874E-1,1.144467E0,1.2792183E0,1.5162011E0,1.9692339E0,-6.0009503E-1,7.945955E-1,1.7859088E0,-3.766826E-2,-9.6120363E-1,-7.087223E-1,2.3570323E0,-6.4604664E-1,-1.8172796E-1,-4.585664E-1,-3.2046825E-1,-7.020225E-1,-3.657762E-1,7.895785E-2,-3.148644E-1,-7.310286E-1,7.315935E-1,3.1862184E-2,9.274509E-1,-2.290372E-1,3.4661472E-1,3.2083517E-1,4.8432857E-1,1.2612457E0,2.1604307E0,1.4833533E0,3.6548212E0,1.8952633E0,-4.6720392E-1,-7.048736E-1,3.2912502E-1,9.795646E-1,1.3128914E0,2.0494862E0,-6.8127537E-1,8.0352716E-2,-2.0636573E-1,-4.4652E-1,4.1364315E-1,-2.2407533E-1,4.2374387E-1,9.110318E-1,-1.20242976E-1,-2.1196017E-1,-1.4625087E-1,4.5996574E-1,-2.174982E-1,-1.13225885E-1,-2.45443E-1,4.7389975E-1,-2.3744512E-1,-1.6204709E-1,-1.650168E-2,-1.4076263E-1,1.3581049E-2,3.893649E-1,-1.0101747E-1,7.9226637E-1,-3.0631125E-1,-1.3411793E-1,2.8803974E-1,1.5641908E-1,5.6987483E-2,-1.8190143E-1,2.838055E-1,3.7880823E-2,3.8309574E-1,3.2349765E-1,6.8552965E-1,4.1840664E-1,4.570008E-1,3.503569E-1,6.632917E-1,1.1889682E0,5.908811E-1,3.6479515E-1,-1.5012975E-1,6.253425E-1,-3.5013586E-1,-2.0363988E-1,2.2465849E-1,-8.175105E-3,2.1226682E-1,3.0606174E-1,3.4966555E-1,4.3171847E-1,4.8332438E-1,8.0631435E-1,-2.0768306E-1,2.1016507E-1,5.4233015E-1,-1.2761728E-2],"categories":[],"categories_nodes":[],"categories_segments":[],"categories_sizes":[],"default_left":[0,0,0,0,0,0,0,0,0,0,0,0,0,0,0,0,0,0,0,0,0,0,0,0,0,0,0,0,0,0,0,0,0,0,0,0,0,0,0,0,0,0,0,0,0,0,0,0,0,0,0,0,0,0,0,0,0,0,0,0,0,0,0,0,0,0,0,0,0,0,0,0,0,0,0,0,0,0,0,0,0,0,0,0,0,0,0,0,0,0,0,0,0,0,0,0,0,0,0,0,0,0,0,0,0,0,0,0,0,0,0,0,0,0,0,0,0,0,0],"id":9,"left_children":[1,3,5,7,9,11,13,15,17,19,21,23,25,27,29,31,33,35,37,39,41,43,45,47,49,51,53,55,57,59,61,63,65,67,69,71,73,75,77,79,81,83,85,87,89,91,-1,-1,-1,-1,93,95,97,99,101,103,105,107,109,111,113,115,117,-1,-1,-1,-1,-1,-1,-1,-1,-1,-1,-1,-1,-1,-1,-1,-1,-1,-1,-1,-1,-1,-1,-1,-1,-1,-1,-1,-1,-1,-1,-1,-1,-1,-1,-1,-1,-1,-1,-1,-1,-1,-1,-1,-1,-1,-1,-1,-1,-1,-1,-1,-1,-1,-1,-1,-1],"loss_changes":[5.952685E3,5.7435693E2,3.678359E4,1.2166382E2,4.6671436E2,8.308008E2,1.5587892E4,3.159668E1,9.5722534E1,3.8939014E2,8.598479E1,2.071582E1,5.343164E2,6.386455E2,4.8344234E4,2.2819702E1,3.1611697E2,7.109802E1,2.0340393E1,2.1679778E2,2.6081494E2,5.4299934E1,6.984482E0,6.936035E-1,1.3259277E1,1.2437988E2,5.6990625E2,5.750762E2,2.8187698E1,1.9228281E3,1.881712E4,6.477823E1,1.5005945E2,1.8901306E1,1.7919617E1,6.329348E2,8.757721E1,1.499041E2,2.2170532E1,4.8966034E1,1.602151E2,1.6597195E3,1.3135138E2,7.010765E0,3.8736248E1,4.1140594E0,0E0,0E0,0E0,0E0,5.5739746E0,2.4526367E1,7.062402E1,7.736206E1,2.2151074E2,1.5459836E3,2.7767383E2,1.4331558E1,1.8921967E0,1.011084E2,2.7701602E3,5.8405664E2,4.443976E4,0E0,0E0,0E0,0E0,0E0,0E0,0E0,0E0,0E0,0E0,0E0,0E0,0E0,0E0,0E0,0E0,0E0,0E0,0E0,0E0,0E0,0E0,0E0,0E0,0E0,0E0,0E0,0E0,0E0,0E0,0E0,0E0,0E0,0E0,0E0,0E0,0E0,0E0,0E0,0E0,0E0,0E0,0E0,0E0,0E0,0E0,0E0,0E0,0E0,0E0,0E0,0E0,0E0,0E0,0E0,0E0],"parents":[2147483647,0,0,1,1,2,2,3,3,4,4,5,5,6,6,7,7,8,8,9,9,10,10,11,11,12,12,13,13,14,14,15,15,16,16,17,17,18,18,19,19,20,20,21,21,22,22,23,23,24,24,25,25,26,26,27,27,28,28,29,29,30,30,31,31,32,32,33,33,34,34,35,35,36,36,37,37,38,38,39,39,40,40,41,41,42,42,43,43,44,44,45,45,50,50,51,51,52,52,53,53,54,54,55,55,56,56,57,57,58,58,59,59,60,60,61,61,62,62],"right_children":[2,4,6,8,10,12,14,16,18,20,22,24,26,28,30,32,34,36,38,40,42,44,46,48,50,52,54,56,58,60,62,64,66,68,70,72,74,76,78,80,82,84,86,88,90,92,-1,-1,-1,-1,94,96,98,100,102,104,106,108,110,112,114,116,118,-1,-1,-1,-1,-1,-1,-1,-1,-1,-1,-1,-1,-1,-1,-1,-1,-1,-1,-1,-1,-1,-1,-1,-1,-1,-1,-1,-1,-1,-1,-1,-1,-1,-1,-1,-1,-1,-1,-1,-1,-1,-1,-1,-1,-1,-1,-1,-1,-1,-1,-1,-1,-1,-1,-1,-1],"split_conditions":[-1.4368211E0,-5.425702E-1,-9.682836E-1,-7.0817924E-1,3.365721E0,-1.3995023E0,-9.3901837E-1,3.4500856E-3,7.153058E-1,-1.4369326E0,5.4241114E0,-7.579451E-1,-6.1458534E-1,4.779919E0,-4.707015E-1,-1.3240528E0,9.962025E-1,-7.069499E-1,9.961569E-1,-1.5940149E0,1.5358107E0,-1.2497814E0,1.6305003E0,1.7154529E0,-7.126475E-1,-1.6013789E0,-6.8205065E-1,-4.712256E-1,5.802267E0,-1.3434416E0,-4.549871E-1,-1.3313841E0,-1.1880243E0,-1.3672627E0,-1.4090726E0,-1.3815192E0,-6.8613845E-1,3.8745063E-3,3.6244674E-3,-1.0446646E0,-1.4454386E0,1.3952994E0,1.5386798E0,-9.0130484E-1,6.756523E-1,1.5288329E0,-2.290372E-1,3.4661472E-1,3.2083517E-1,4.8432857E-1,2.1730068E0,1.3913614E0,1.9247167E0,9.961569E-1,2.3756363E0,-5.904596E-1,-4.5069972E-1,-9.0130484E-1,6.216428E0,-7.579451E-1,-6.1458534E-1,4.519149E0,2.6880627E-2,-2.0636573E-1,-4.4652E-1,4.1364315E-1,-2.2407533E-1,4.2374387E-1,9.110318E-1,-1.20242976E-1,-2.1196017E-1,-1.4625087E-1,4.5996574E-1,-2.174982E-1,-1.13225885E-1,-2.45443E-1,4.7389975E-1,-2.3744512E-1,-1.6204709E-1,-1.650168E-2,-1.4076263E-1,1.3581049E-2,3.893649E-1,-1.0101747E-1,7.9226637E-1,-3.0631125E-1,-1.3411793E-1,2.8803974E-1,1.5641908E-1,5.6987483E-2,-1.8190143E-1,2.838055E-1,3.7880823E-2,3.8309574E-1,3.2349765E-1,6.8552965E-1,4.1840664E-1,4.570008E-1,3.503569E-1,6.632917E-1,1.1889682E0,5.908811E-1,3.6479515E-1,-1.5012975E-1,6.253425E-1,-3.5013586E-1,-2.0363988E-1,2.2465849E-1,-8.175105E-3,2.1226682E-1,3.0606174E-1,3.4966555E-1,4.3171847E-1,4.8332438E-1,8.0631435E-1,-2.0768306E-1,2.1016507E-1,5.4233015E-1,-1.2761728E-2],"split_indices":[17,12,17,12,12,15,17,9,15,15,12,16,16,12,17,16,9,13,20,15,16,15,15,12,12,16,12,16,12,15,17,16,16,15,15,13,13,20,11,16,15,16,16,16,16,18,0,0,0,0,12,12,12,20,12,16,16,16,12,16,16,12,17,0,0,0,0,0,0,0,0,0,0,0,0,0,0,0,0,0,0,0,0,0,0,0,0,0,0,0,0,0,0,0,0,0,0,0,0,0,0,0,0,0,0,0,0,0,0,0,0,0,0,0,0,0,0,0,0],"split_type":[0,0,0,0,0,0,0,0,0,0,0,0,0,0,0,0,0,0,0,0,0,0,0,0,0,0,0,0,0,0,0,0,0,0,0,0,0,0,0,0,0,0,0,0,0,0,0,0,0,0,0,0,0,0,0,0,0,0,0,0,0,0,0,0,0,0,0,0,0,0,0,0,0,0,0,0,0,0,0,0,0,0,0,0,0,0,0,0,0,0,0,0,0,0,0,0,0,0,0,0,0,0,0,0,0,0,0,0,0,0,0,0,0,0,0,0,0,0,0],"sum_hessian":[3.6445488E5,4.408689E4,3.20368E5,1.0567739E4,3.3519152E4,1.5546442E4,3.0482153E5,3.5849954E3,6.982744E3,3.2696658E4,8.2249304E2,4.8930303E3,1.0653412E4,4.1653363E4,2.631682E5,2.323746E3,1.2612493E3,5.2670293E3,1.7157146E3,5.4252896E3,2.727137E4,5.3714026E2,2.853528E2,2.3551868E3,2.5378433E3,6.0280493E3,4.6253633E3,4.1323227E4,3.301365E2,1.5443056E4,2.4772512E5,4.556667E2,1.8680795E3,3.511971E1,1.2261296E3,1.2045723E3,4.062457E3,1.5615308E2,1.5595615E3,1.5231469E3,3.9021428E3,2.5671855E4,1.5995135E3,1.5536293E2,3.817773E2,2.83592E2,1.7607768E0,2.0434484E3,3.117385E2,1.2462488E2,2.4132185E3,2.893043E2,5.7387446E3,1.9241187E2,4.4329517E3,1.8220078E4,2.3103146E4,9.467315E1,2.3546335E2,5.5281616E3,9.914894E3,3.838645E4,2.0933867E5,3.0160724E2,1.5405945E2,3.2935295E1,1.8351442E3,1.5985105E1,1.9134604E1,2.4409753E2,9.820321E2,1.0229043E3,1.8166801E2,9.465934E2,3.1158638E3,1.2419411E2,3.1958967E1,1.0019214E3,5.5764014E2,3.8073425E2,1.1424126E3,3.798208E3,1.0393474E2,2.5484262E4,1.8759326E2,7.900568E2,8.094567E2,7.2724495E1,8.263844E1,3.0654245E2,7.523488E1,2.7699197E2,6.6000605E0,2.2165093E3,1.9670908E2,2.4709184E2,4.2212444E1,5.0898804E3,6.488645E2,3.5303288E1,1.5710857E2,3.9939536E3,4.3899786E2,1.7986656E4,2.3342264E2,1.2312676E3,2.1871879E4,4.296634E1,5.170681E1,3.3000793E1,2.0246255E2,2.554865E3,2.9732966E3,5.879639E3,4.0352544E3,3.8083742E4,3.027073E2,1.3902738E4,1.9543594E5],"tree_param":{"num_deleted":"0","num_feature":"21","num_nodes":"119","size_leaf_vector":"1"}},{"base_weights":[9.882426E-3,5.398118E-2,-3.3958894E-1,-2.9093985E-2,1.722725E0,-6.74757E-2,-3.9871678E-1,4.5994066E-2,-5.443254E-1,1.2544904E0,2.0110393E0,-4.146768E-1,4.3207545E-2,-6.885188E-1,-3.52261E-1,-5.2873716E-2,1.7814052E0,-3.4608847E-1,-6.233051E-1,1.1672949E0,1.4902316E0,1.59753E0,2.5797172E0,-4.8108765E-1,2.8893858E-1,1.3530469E0,2.262068E-2,-6.2248796E-1,-1.0152141E0,2.0627005E0,-3.8602954E-1,5.0767895E-2,-6.2013626E-1,1.2509744E0,2.0614016E0,-1.7081583E-1,-4.6196926E-1,-3.7957355E-1,-6.582657E-1,3.317445E-1,1.2202986E0,1.3069291E0,1.6585876E0,1.657675E0,1.2097389E0,2.841539E0,1.7550435E0,-7.1742874E-1,-3.0827406E-1,4.3580332E-1,-3.709101E-1,3.4222263E-1,4.4273067E-1,-8.767203E-1,5.205203E-2,-6.601959E-1,1.4951813E0,-1.0700002E0,-6.649123E-1,1.6136416E0,2.7527258E0,-3.9647785E-1,7.18738E-1,-2.2600515E-2,5.406332E-1,-1.8911025E-1,1.9790412E-1,3.6128935E-1,4.5497635E-1,4.8597878E-1,8.0448407E-1,-6.6346295E-2,4.4094858E-1,-3.613321E-1,-1.2815562E-1,-2.0225221E-1,4.8202097E-1,-4.2538533E-1,-1.8211193E-1,3.716002E-1,3.303715E-1,3.994256E-1,3.29054E-1,5.0999284E-1,3.493703E-1,6.8728817E-1,4.872106E-1,3.8717663E-1,3.2555166E-1,9.134679E-1,4.3424216E-1,4.549525E-1,5.9186494E-1,-2.6041406E-1,-1.3778947E-1,4.112939E-1,-1.23584546E-1,-9.387869E-2,1.566933E-1,-3.2969587E-2,-9.0793985E-1,-3.6051393E-1,-2.0054297E-1,4.074327E-1,5.3243795E-3,-2.235105E-1,-1.283239E-1,3.91314E-1,5.0798464E-1,-3.618433E-1,-2.954743E-1,-2.1269444E-2,-2.9276037E-1,4.985061E-1,3.458991E-1,9.0537226E-1,4.6332636E-1,-1.8575105E-1,-1.03282735E-1,1.0879176E-1,2.9195845E-1],"categories":[],"categories_nodes":[],"categories_segments":[],"categories_sizes":[],"default_left":[0,0,0,0,0,0,0,0,0,0,0,0,0,0,0,0,0,0,0,0,0,0,0,0,0,0,0,0,0,0,0,0,0,0,0,0,0,0,0,0,0,0,0,0,0,0,0,0,0,0,0,0,0,0,0,0,0,0,0,0,0,0,0,0,0,0,0,0,0,0,0,0,0,0,0,0,0,0,0,0,0,0,0,0,0,0,0,0,0,0,0,0,0,0,0,0,0,0,0,0,0,0,0,0,0,0,0,0,0,0,0,0,0,0,0,0,0,0,0,0,0],"id":10,"left_children":[1,3,5,7,9,11,13,15,17,19,21,23,25,27,29,31,33,35,37,39,41,43,45,47,49,51,53,55,57,59,61,63,65,67,69,71,73,75,77,-1,79,81,83,85,87,89,91,93,95,97,99,-1,-1,101,103,105,107,109,111,113,115,117,119,-1,-1,-1,-1,-1,-1,-1,-1,-1,-1,-1,-1,-1,-1,-1,-1,-1,-1,-1,-1,-1,-1,-1,-1,-1,-1,-1,-1,-1,-1,-1,-1,-1,-1,-1,-1,-1,-1,-1,-1,-1,-1,-1,-1,-1,-1,-1,-1,-1,-1,-1,-1,-1,-1,-1,-1,-1,-1],"loss_changes":[5.407023E3,4.3188773E4,6.3248096E2,1.1481151E4,1.9919219E3,2.6973578E2,4.3453613E2,4.444125E4,5.907959E2,1.140459E2,2.1456445E3,7.942044E1,1.435032E2,9.559204E1,2.2707175E3,1.4407416E4,2.0708945E3,2.1839941E2,2.2975195E2,1.206543E1,4.465625E1,1.21509766E2,8.256953E2,6.3114594E1,1.440272E1,4.620514E-1,1.3878252E2,2.974973E2,1.3651611E1,1.14546875E2,3.1715942E2,4.5760434E4,4.9611035E2,5.800586E1,2.4971758E3,3.540354E2,1.667074E2,1.9838865E3,9.177412E2,0E0,3.449463E0,2.3010254E0,1.4115234E1,9.389258E1,5.7979736E0,8.229551E2,4.5318115E1,2.5036743E1,1.5681503E2,7.978739E0,1.8585453E1,0E0,0E0,1.0441467E1,2.2741306E2,7.164111E1,2.5831604E-1,6.289856E0,1.9114655E1,3.2858887E0,4.3392334E1,3.1593164E2,2.2983902E1,0E0,0E0,0E0,0E0,0E0,0E0,0E0,0E0,0E0,0E0,0E0,0E0,0E0,0E0,0E0,0E0,0E0,0E0,0E0,0E0,0E0,0E0,0E0,0E0,0E0,0E0,0E0,0E0,0E0,0E0,0E0,0E0,0E0,0E0,0E0,0E0,0E0,0E0,0E0,0E0,0E0,0E0,0E0,0E0,0E0,0E0,0E0,0E0,0E0,0E0,0E0,0E0,0E0,0E0,0E0,0E0,0E0,0E0],"parents":[2147483647,0,0,1,1,2,2,3,3,4,4,5,5,6,6,7,7,8,8,9,9,10,10,11,11,12,12,13,13,14,14,15,15,16,16,17,17,18,18,19,19,20,20,21,21,22,22,23,23,24,24,25,25,26,26,27,27,28,28,29,29,30,30,31,31,32,32,33,33,34,34,35,35,36,36,37,37,38,38,40,40,41,41,42,42,43,43,44,44,45,45,46,46,47,47,48,48,49,49,50,50,53,53,54,54,55,55,56,56,57,57,58,58,59,59,60,60,61,61,62,62],"right_children":[2,4,6,8,10,12,14,16,18,20,22,24,26,28,30,32,34,36,38,40,42,44,46,48,50,52,54,56,58,60,62,64,66,68,70,72,74,76,78,-1,80,82,84,86,88,90,92,94,96,98,100,-1,-1,102,104,106,108,110,112,114,116,118,120,-1,-1,-1,-1,-1,-1,-1,-1,-1,-1,-1,-1,-1,-1,-1,-1,-1,-1,-1,-1,-1,-1,-1,-1,-1,-1,-1,-1,-1,-1,-1,-1,-1,-1,-1,-1,-1,-1,-1,-1,-1,-1,-1,-1,-1,-1,-1,-1,-1,-1,-1,-1,-1,-1,-1,-1,-1,-1],"split_conditions":[1.519627E0,1.0238446E0,-1.427575E0,1.0220449E0,-1.128133E0,-1.6016884E0,-1.2621863E0,5.503369E-1,-1.0626302E0,-1.3995023E0,-6.1458534E-1,1.5429035E0,-1.5965477E0,1.4131209E0,-9.3191373E-1,5.2446276E-1,-1.2872117E0,-6.1458534E-1,-1.3313841E0,-7.579451E-1,-7.579451E-1,1.6551533E0,7.292011E-1,-1.6393992E0,9.839838E-1,-7.579451E-1,-1.5940149E0,7.292011E-1,9.7214305E-1,-6.1458534E-1,4.519149E0,4.7307312E-2,4.519149E0,-1.3995023E0,-6.1458534E-1,-7.3972577E-1,-5.904596E-1,-1.4639084E0,-1.3240528E0,3.317445E-1,1.4397169E0,1.7810129E0,1.9247167E0,-1.6013789E0,3.365721E0,2.0024943E0,1.4131209E0,3.4500856E-3,-1.6334412E0,-1.2621863E0,1.4169807E0,3.4222263E-1,4.4273067E-1,-3.5362816E-1,-1.5866535E0,4.2312243E-3,-6.2741673E-1,-8.7715274E-1,-1.0453467E0,1.9247167E0,1.3447075E0,-1.3815192E0,5.802267E0,-2.2600515E-2,5.406332E-1,-1.8911025E-1,1.9790412E-1,3.6128935E-1,4.5497635E-1,4.8597878E-1,8.0448407E-1,-6.6346295E-2,4.4094858E-1,-3.613321E-1,-1.2815562E-1,-2.0225221E-1,4.8202097E-1,-4.2538533E-1,-1.8211193E-1,3.716002E-1,3.303715E-1,3.994256E-1,3.29054E-1,5.0999284E-1,3.493703E-1,6.8728817E-1,4.872106E-1,3.8717663E-1,3.2555166E-1,9.134679E-1,4.3424216E-1,4.549525E-1,5.9186494E-1,-2.6041406E-1,-1.3778947E-1,4.112939E-1,-1.23584546E-1,-9.387869E-2,1.566933E-1,-3.2969587E-2,-9.0793985E-1,-3.6051393E-1,-2.0054297E-1,4.074327E-1,5.3243795E-3,-2.235105E-1,-1.283239E-1,3.91314E-1,5.0798464E-1,-3.618433E-1,-2.954743E-1,-2.1269444E-2,-2.9276037E-1,4.985061E-1,3.458991E-1,9.0537226E-1,4.6332636E-1,-1.8575105E-1,-1.03282735E-1,1.0879176E-1,2.9195845E-1],"split_indices":[17,17,15,17,15,15,18,17,15,15,16,12,15,13,18,17,15,16,16,16,16,12,13,15,1,16,15,13,12,16,12,17,12,15,16,16,16,16,16,0,12,12,12,16,12,12,13,9,15,18,18,0,0,14,15,1,16,16,16,12,12,13,12,0,0,0,0,0,0,0,0,0,0,0,0,0,0,0,0,0,0,0,0,0,0,0,0,0,0,0,0,0,0,0,0,0,0,0,0,0,0,0,0,0,0,0,0,0,0,0,0,0,0,0,0,0,0,0,0,0,0],"split_type":[0,0,0,0,0,0,0,0,0,0,0,0,0,0,0,0,0,0,0,0,0,0,0,0,0,0,0,0,0,0,0,0,0,0,0,0,0,0,0,0,0,0,0,0,0,0,0,0,0,0,0,0,0,0,0,0,0,0,0,0,0,0,0,0,0,0,0,0,0,0,0,0,0,0,0,0,0,0,0,0,0,0,0,0,0,0,0,0,0,0,0,0,0,0,0,0,0,0,0,0,0,0,0,0,0,0,0,0,0,0,0,0,0,0,0,0,0,0,0,0,0],"sum_hessian":[3.508468E5,3.1153588E5,3.931094E4,2.967631E5,1.477279E4,7.0175396E3,3.2293402E4,2.5901592E5,3.7747176E4,5.63182E3,9.140971E3,1.6956685E3,5.321871E3,4.459593E3,2.783381E4,2.4505586E5,1.3960062E4,1.0755795E4,2.6991383E4,4.1155283E3,1.5162914E3,5.2947495E3,3.846221E3,1.5497146E3,1.4595386E2,8.13485E1,5.2405225E3,3.7121973E3,7.4739545E2,3.8300592E2,2.7450805E4,2.0720028E5,3.7855582E4,4.824984E3,9.135078E3,4.2818545E3,6.473941E3,3.3874353E3,2.3603947E4,1.9155355E3,2.1999927E3,7.301174E2,7.86174E2,4.5809824E3,7.137674E2,2.9175088E3,9.287121E2,6.532179E2,8.964967E2,1.19660225E2,2.6293634E1,3.3569595E1,4.777891E1,1.6515172E2,5.0753706E3,3.647929E3,6.42681E1,6.445373E2,1.0285813E2,2.3403662E2,1.489693E2,2.7194256E4,2.5654742E2,1.932841E5,1.39161875E4,3.755586E4,2.997233E2,4.1085215E3,7.164623E2,5.3386147E3,3.796463E3,4.155228E3,1.2662607E2,2.8821832E2,6.1857227E3,2.9504924E3,4.36943E2,1.4893978E3,2.2114549E4,1.8977964E3,3.0219635E2,6.491122E2,8.100516E1,7.231485E2,6.3025524E1,2.2768042E2,4.353302E3,4.2715927E2,2.8660812E2,2.5450723E3,3.7243665E2,4.4709872E2,4.8161337E2,4.110242E2,2.4219366E2,5.1419056E1,8.450777E2,1.2122392E1,1.07537834E2,2.4888733E1,1.4049001E0,6.2633278E1,1.0251843E2,1.2890721E2,4.9464634E3,2.6709023E3,9.7702673E2,3.6600563E1,2.7667534E1,2.4282426E2,4.0171304E2,3.576491E1,6.709322E1,2.0957103E2,2.4465584E1,1.20931366E2,2.8037928E1,5.16209E3,2.2032166E4,1.07930084E2,1.4861734E2],"tree_param":{"num_deleted":"0","num_feature":"21","num_nodes":"121","size_leaf_vector":"1"}},{"base_weights":[1.0559647E-2,3.7670933E-2,-4.8413023E-1,1.5751721E-2,1.9714761E0,-9.41331E-1,-1.173446E-1,4.1323416E-2,-9.859358E-1,1.4052233E0,2.3417876E0,-1.104042E0,-9.109567E-1,1.6799579E0,-7.5905865E-1,1.8040553E-2,2.012426E0,-1.3493965E0,-9.2414653E-1,1.3705734E0,1.814368E0,2.44544E0,1.3478506E0,-1.2634363E0,-9.2674094E-1,3.7772864E-1,-9.1339105E-1,1.3628318E0,1.8629572E0,-8.120979E-1,-6.241953E-1,4.262345E-2,-8.652163E-1,1.4174802E0,2.404935E0,-1.4343679E0,-8.225999E-1,-6.93896E-1,-9.433842E-1,1.4055667E0,3.41469E-1,5.624649E-1,3.585392E-1,1.9579054E0,2.5614657E0,4.651153E-1,3.4673625E-1,-1.4510739E0,-9.746842E-1,-1.1047128E0,-6.5384734E-1,-9.736553E-1,-8.235327E-1,4.1809618E-1,3.380749E-1,2.7909644E0,1.7453989E0,-9.091692E-1,-7.43279E-1,1.7825971E0,-7.0636433E-1,6.1746812E-3,6.0933954E-1,-2.6925302E-1,-2.0009328E-1,4.1404164E-1,5.4945713E-1,7.60872E-1,4.41433E-1,-2.7720496E-1,-4.472743E-1,-1.8175854E-1,-6.21344E-1,-2.4869274E-1,3.946151E-1,-2.796506E-1,-4.027795E-1,4.1444764E-1,4.795144E-1,6.9595134E-1,4.8147282E-1,7.380908E-1,9.661948E-1,-3.2465753E-1,-4.951384E-1,4.049368E-1,-3.3631384E-1,-3.5031348E-1,-4.96217E-2,3.7320843E-1,-2.1847449E-1,-2.929115E-1,2.6519838E-1,4.9731293E-1,-2.6264328E-1,7.864937E-1,1.1828278E0,5.374823E-1,3.8129267E-1,-2.0641273E-1,-2.9039028E-1,4.4871834E-1,-2.3336083E-1,4.0951747E-1,6.537006E-1,-2.4115944E-1,-1.3298401E-1],"categories":[],"categories_nodes":[],"categories_segments":[],"categories_sizes":[],"default_left":[0,0,0,0,0,0,0,0,0,0,0,0,0,0,0,0,0,0,0,0,0,0,0,0,0,0,0,0,0,0,0,0,0,0,0,0,0,0,0,0,0,0,0,0,0,0,0,0,0,0,0,0,0,0,0,0,0,0,0,0,0,0,0,0,0,0,0,0,0,0,0,0,0,0,0,0,0,0,0,0,0,0,0,0,0,0,0,0,0,0,0,0,0,0,0,0,0,0,0,0,0,0,0,0,0,0,0],"id":11,"left_children":[1,3,5,7,9,11,13,15,17,19,21,23,25,27,29,31,33,35,37,39,41,43,45,47,49,-1,51,53,55,57,59,61,63,65,67,69,71,73,75,77,-1,-1,-1,79,81,-1,-1,83,85,87,89,91,93,-1,-1,95,97,99,101,103,105,-1,-1,-1,-1,-1,-1,-1,-1,-1,-1,-1,-1,-1,-1,-1,-1,-1,-1,-1,-1,-1,-1,-1,-1,-1,-1,-1,-1,-1,-1,-1,-1,-1,-1,-1,-1,-1,-1,-1,-1,-1,-1,-1,-1,-1,-1],"loss_changes":[4.5327095E3,1.3581223E4,2.9445762E3,8.1152637E3,7.4971094E2,3.7625E1,1.1240089E4,1.417773E4,1.758706E2,1.7677979E1,2.2023047E2,3.344519E1,3.5975586E1,1.462666E2,5.086084E1,6.629583E3,8.3879004E2,5.001758E1,2.9216797E1,9.094971E0,1.8050232E0,1.06055664E2,6.2650146E0,3.3383667E1,2.7622498E1,0E0,3.486133E1,5.2786865E0,1.7220703E2,3.3734375E1,4.029967E2,1.3019785E4,5.2330566E1,1.967456E1,2.6243555E2,2.7006226E1,4.2368988E1,1.432537E2,2.6603027E1,3.0786133E0,0E0,0E0,0E0,4.5043823E1,9.762793E1,0E0,0E0,2.669574E1,8.86131E1,2.062439E1,3.378163E1,2.0726318E1,3.430287E2,0E0,0E0,2.4929077E1,2.9364746E1,2.705896E1,2.3502417E2,8.172485E0,5.004883E1,0E0,0E0,0E0,0E0,0E0,0E0,0E0,0E0,0E0,0E0,0E0,0E0,0E0,0E0,0E0,0E0,0E0,0E0,0E0,0E0,0E0,0E0,0E0,0E0,0E0,0E0,0E0,0E0,0E0,0E0,0E0,0E0,0E0,0E0,0E0,0E0,0E0,0E0,0E0,0E0,0E0,0E0,0E0,0E0,0E0,0E0],"parents":[2147483647,0,0,1,1,2,2,3,3,4,4,5,5,6,6,7,7,8,8,9,9,10,10,11,11,12,12,13,13,14,14,15,15,16,16,17,17,18,18,19,19,20,20,21,21,22,22,23,23,24,24,26,26,27,27,28,28,29,29,30,30,31,31,32,32,33,33,34,34,35,35,36,36,37,37,38,38,39,39,43,43,44,44,47,47,48,48,49,49,50,50,51,51,52,52,55,55,56,56,57,57,58,58,59,59,60,60],"right_children":[2,4,6,8,10,12,14,16,18,20,22,24,26,28,30,32,34,36,38,40,42,44,46,48,50,-1,52,54,56,58,60,62,64,66,68,70,72,74,76,78,-1,-1,-1,80,82,-1,-1,84,86,88,90,92,94,-1,-1,96,98,100,102,104,106,-1,-1,-1,-1,-1,-1,-1,-1,-1,-1,-1,-1,-1,-1,-1,-1,-1,-1,-1,-1,-1,-1,-1,-1,-1,-1,-1,-1,-1,-1,-1,-1,-1,-1,-1,-1,-1,-1,-1,-1,-1,-1,-1,-1,-1,-1],"split_conditions":[1.5358107E0,1.3952994E0,1.5386798E0,1.392451E0,-1.3434416E0,-1.417358E0,1.6791705E0,1.2659054E0,-1.417358E0,-1.3995023E0,2.1730068E0,8.2227424E-2,-1.4090726E0,-1.4042218E0,5.503369E-1,1.2490913E0,-1.3434416E0,8.019176E-1,9.961569E-1,1.3006806E0,1.3913614E0,-9.682836E-1,3.1872053E0,-5.5409376E-2,3.7365244E-3,3.7772864E-1,3.5566803E-2,1.3006806E0,-6.171607E-1,-6.8613845E-1,1.0220449E0,1.1381319E0,1.0238446E0,-1.3995023E0,1.8523806E0,9.961569E-1,9.960176E-1,3.8745063E-3,2.3756363E0,1.519627E0,3.41469E-1,5.624649E-1,3.585392E-1,-1.4368211E0,1.4131209E0,4.651153E-1,3.4673625E-1,-4.707015E-1,1.088584E0,1.6551533E0,9.9638706E-1,6.216428E0,7.064306E-1,4.1809618E-1,3.380749E-1,1.4131209E0,2.3756363E0,-9.682836E-1,-2.596801E-4,-1.0813453E0,4.2312243E-3,6.1746812E-3,6.0933954E-1,-2.6925302E-1,-2.0009328E-1,4.1404164E-1,5.4945713E-1,7.60872E-1,4.41433E-1,-2.7720496E-1,-4.472743E-1,-1.8175854E-1,-6.21344E-1,-2.4869274E-1,3.946151E-1,-2.796506E-1,-4.027795E-1,4.1444764E-1,4.795144E-1,6.9595134E-1,4.8147282E-1,7.380908E-1,9.661948E-1,-3.2465753E-1,-4.951384E-1,4.049368E-1,-3.3631384E-1,-3.5031348E-1,-4.96217E-2,3.7320843E-1,-2.1847449E-1,-2.929115E-1,2.6519838E-1,4.9731293E-1,-2.6264328E-1,7.864937E-1,1.1828278E0,5.374823E-1,3.8129267E-1,-2.0641273E-1,-2.9039028E-1,4.4871834E-1,-2.3336083E-1,4.0951747E-1,6.537006E-1,-2.4115944E-1,-1.3298401E-1],"split_indices":[16,16,16,16,15,15,16,16,15,15,12,18,15,15,17,16,15,12,20,12,12,17,12,19,10,0,13,12,12,13,17,16,17,15,12,20,5,20,12,17,0,0,0,17,13,0,0,17,19,12,10,12,13,0,0,13,12,17,13,15,1,0,0,0,0,0,0,0,0,0,0,0,0,0,0,0,0,0,0,0,0,0,0,0,0,0,0,0,0,0,0,0,0,0,0,0,0,0,0,0,0,0,0,0,0,0,0],"split_type":[0,0,0,0,0,0,0,0,0,0,0,0,0,0,0,0,0,0,0,0,0,0,0,0,0,0,0,0,0,0,0,0,0,0,0,0,0,0,0,0,0,0,0,0,0,0,0,0,0,0,0,0,0,0,0,0,0,0,0,0,0,0,0,0,0,0,0,0,0,0,0,0,0,0,0,0,0,0,0,0,0,0,0,0,0,0,0,0,0,0,0,0,0,0,0,0,0,0,0,0,0,0,0,0,0,0,0],"sum_hessian":[3.3796497E5,3.2040616E5,1.755881E4,3.1681612E5,3.590026E3,7.815353E3,9.743458E3,3.089305E5,7.8856094E3,1.4213685E3,2.1686575E3,1.2238771E3,6.591476E3,2.5631135E3,7.1803447E3,3.05325E5,3.6055208E3,1.1427595E3,6.74285E3,1.3144032E3,1.0696531E2,1.9625344E3,2.0612296E2,6.4125806E2,5.8261896E2,6.8076077E0,6.5846685E3,9.4095184E2,1.6221616E3,5.149946E3,2.0303993E3,2.970582E5,8.266803E3,1.4350117E3,2.170509E3,9.825526E2,1.602069E2,5.227894E2,6.2200605E3,1.1379645E3,1.7643877E2,9.559554E1,1.1369769E1,3.8070477E2,1.5818296E3,9.6884476E1,1.0923847E2,3.8624316E2,2.5501486E2,3.5079462E2,2.3182437E2,3.9354753E3,2.6491929E3,8.278824E2,1.1306944E2,1.7983112E2,1.4423304E3,2.1313708E3,3.018575E3,6.634719E1,1.964052E3,2.9380262E5,3.2555793E3,7.10573E3,1.1610728E3,1.320273E3,1.1473869E2,1.901348E3,2.6916095E2,9.973642E1,8.828162E2,1.3777539E2,2.24315E1,4.904077E2,3.2381683E1,6.053332E3,1.6672845E2,1.01890936E3,1.19055115E2,1.8522198E2,1.954828E2,1.3754719E3,2.063577E2,1.3777544E2,2.4846774E2,1.4618959E1,2.403959E2,3.2851794E2,2.2276667E1,8.152165E0,2.236722E2,3.930203E3,5.2724967E0,5.3689716E1,2.5955032E3,1.5963959E2,2.0191538E1,1.3117863E3,1.3054416E2,4.5036285E2,1.6810079E3,4.5281853E1,2.973293E3,3.4476353E1,3.1870836E1,1.4314818E3,5.325702E2],"tree_param":{"num_deleted":"0","num_feature":"21","num_nodes":"107","size_leaf_vector":"1"}},{"base_weights":[7.3687118E-3,-4.2178115E-1,3.518977E-2,-6.0260993E-1,-3.5245904E-1,1.288613E0,-6.5264828E-3,-8.340679E-1,-5.4343265E-1,-5.639933E-1,-3.029359E-1,1.1977895E0,1.3532226E0,-2.0930214E-1,4.4665366E-2,-5.8223283E-1,-1.3264576E0,1.3159434E0,-5.7498085E-1,-2.5120455E-1,-1.3146691E0,1.3160205E0,-3.4219995E-1,1.2193673E0,3.2602137E-1,1.3857261E0,1.1569232E0,-5.8392483E-1,-1.7024197E-1,1.5740304E-1,-5.9152033E-2,-8.045336E-1,1.4809011E0,-2.9543164E0,-1.1861643E0,3.2856327E-1,4.2425224E-1,-9.6944344E-1,-5.4210234E-1,-5.2806425E-1,1.4451579E0,-1.8910788E0,-1.1872115E0,3.3278623E-1,1.3979837E0,-7.6750857E-1,-3.1156144E-1,1.1599946E0,1.2658793E0,1.5513287E0,1.3603802E0,3.621568E-1,3.1650937E-1,-8.105597E-1,-4.7663322E-1,-1.2580447E-1,-3.7564567E-1,1.168856E-1,1.9052248E0,-8.871465E-1,-2.0497547E-2,-1.6501904E-1,-3.2484427E-1,3.374649E-1,4.9831712E-1,-9.98164E-1,-5.356814E-1,-3.1290162E-1,-4.0932766E-1,-3.9482862E-1,-2.5754195E-1,3.6812362E-1,-1.706033E-1,-7.624141E-2,-2.625136E-1,3.4193158E-1,4.7488138E-1,-5.945318E-1,-1.3219404E-1,-3.585771E-1,2.2798E-1,3.4577125E-1,4.3273255E-1,-2.3633957E-1,1.3499121E-1,3.7435108E-1,-1.043425E-1,3.4307843E-1,3.6918414E-1,4.132268E-1,3.765659E-1,4.1623425E-1,5.5989814E-1,4.4849205E-1,4.0366146E-1,-3.048242E-1,-2.2523236E-1,-1.9428283E-1,-1.221796E-1,-5.6769013E-2,4.1531488E-1,-3.905222E-2,-1.2733665E-1,4.9032174E-2,-2.391328E-1,4.0121138E-1,6.654242E-1,-3.184506E-1,-2.5170517E-1,5.859741E-1,-1.8017706E-2],"categories":[],"categories_nodes":[],"categories_segments":[],"categories_sizes":[],"default_left":[0,0,0,0,0,0,0,0,0,0,0,0,0,0,0,0,0,0,0,0,0,0,0,0,0,0,0,0,0,0,0,0,0,0,0,0,0,0,0,0,0,0,0,0,0,0,0,0,0,0,0,0,0,0,0,0,0,0,0,0,0,0,0,0,0,0,0,0,0,0,0,0,0,0,0,0,0,0,0,0,0,0,0,0,0,0,0,0,0,0,0,0,0,0,0,0,0,0,0,0,0,0,0,0,0,0,0,0,0,0,0],"id":12,"left_children":[1,3,5,7,9,11,13,15,17,19,21,23,25,27,29,31,33,35,37,39,41,43,45,47,-1,49,51,53,55,57,59,61,63,65,67,-1,-1,69,71,73,75,77,79,-1,81,83,85,87,89,91,93,-1,-1,95,97,99,101,103,105,107,109,-1,-1,-1,-1,-1,-1,-1,-1,-1,-1,-1,-1,-1,-1,-1,-1,-1,-1,-1,-1,-1,-1,-1,-1,-1,-1,-1,-1,-1,-1,-1,-1,-1,-1,-1,-1,-1,-1,-1,-1,-1,-1,-1,-1,-1,-1,-1,-1,-1,-1],"loss_changes":[3.9694458E3,2.5351733E2,1.6325655E4,7.63573E1,1.5313489E2,5.7390625E1,3.1366633E3,1.4058325E2,2.628988E2,6.512435E2,7.543672E2,8.712891E0,3.5842773E1,8.91156E2,2.8237727E3,3.4791736E2,8.441254E1,7.4401855E-2,5.6474487E1,9.2130145E2,5.7700684E1,3.2112427E0,1.506604E2,8.194824E0,0E0,1.9001953E1,3.0273438E0,1.3944434E2,5.0341772E2,8.190667E3,4.019923E3,4.7777954E1,2.8704834E0,7.0782166E0,7.6641846E0,0E0,0E0,1.1828918E1,1.9154395E2,1.6000403E2,9.778381E0,1.8341187E1,1.1418152E1,0E0,4.913025E-1,1.956018E1,6.110957E2,3.8671875E-1,5.9106445E-1,3.150879E1,6.7192383E0,0E0,0E0,2.1921997E1,4.605426E1,4.344017E3,1.1748401E2,4.810219E3,4.625703E2,4.611914E1,9.370203E3,0E0,0E0,0E0,0E0,0E0,0E0,0E0,0E0,0E0,0E0,0E0,0E0,0E0,0E0,0E0,0E0,0E0,0E0,0E0,0E0,0E0,0E0,0E0,0E0,0E0,0E0,0E0,0E0,0E0,0E0,0E0,0E0,0E0,0E0,0E0,0E0,0E0,0E0,0E0,0E0,0E0,0E0,0E0,0E0,0E0,0E0,0E0,0E0,0E0,0E0],"parents":[2147483647,0,0,1,1,2,2,3,3,4,4,5,5,6,6,7,7,8,8,9,9,10,10,11,11,12,12,13,13,14,14,15,15,16,16,17,17,18,18,19,19,20,20,21,21,22,22,23,23,25,25,26,26,27,27,28,28,29,29,30,30,31,31,32,32,33,33,34,34,37,37,38,38,39,39,40,40,41,41,42,42,44,44,45,45,46,46,47,47,48,48,49,49,50,50,53,53,54,54,55,55,56,56,57,57,58,58,59,59,60,60],"right_children":[2,4,6,8,10,12,14,16,18,20,22,24,26,28,30,32,34,36,38,40,42,44,46,48,-1,50,52,54,56,58,60,62,64,66,68,-1,-1,70,72,74,76,78,80,-1,82,84,86,88,90,92,94,-1,-1,96,98,100,102,104,106,108,110,-1,-1,-1,-1,-1,-1,-1,-1,-1,-1,-1,-1,-1,-1,-1,-1,-1,-1,-1,-1,-1,-1,-1,-1,-1,-1,-1,-1,-1,-1,-1,-1,-1,-1,-1,-1,-1,-1,-1,-1,-1,-1,-1,-1,-1,-1,-1,-1,-1,-1],"split_conditions":[3.8745063E-3,-5.107033E-1,9.961569E-1,-1.3240528E0,-1.3240528E0,-1.2217087E0,-5.692199E-1,-1.3313841E0,-1.1880243E0,-1.3313841E0,-1.1880243E0,1.217096E0,1.9247167E0,-7.717695E-1,-4.712256E-1,-1.4639084E0,-1.420811E0,-1.3995023E0,-1.1832858E0,-1.4639084E0,-1.128133E0,-1.3995023E0,-1.1832858E0,-9.0130484E-1,3.2602137E-1,-1.4639084E0,4.2588897E0,-7.9152614E-1,1.4131209E0,-5.904596E-1,-4.5069972E-1,-1.4747438E0,-1.1667607E0,3.7462313E-3,1.3802546E-1,3.2856327E-1,4.2425224E-1,-1.0813453E0,-1.0446646E0,-1.4747438E0,-1.2778541E0,1.8523806E0,6.216428E0,3.3278623E-1,-7.069499E-1,3.567566E0,-1.0446646E0,-1.4042218E0,-6.90745E-1,-1.4747438E0,-6.5574545E-1,3.621568E-1,3.1650937E-1,-1.3240528E0,-1.1832858E0,7.292011E-1,-9.682836E-1,-6.1458534E-1,-1.3434416E0,-1.2375851E0,-3.2786584E-1,-1.6501904E-1,-3.2484427E-1,3.374649E-1,4.9831712E-1,-9.98164E-1,-5.356814E-1,-3.1290162E-1,-4.0932766E-1,-3.9482862E-1,-2.5754195E-1,3.6812362E-1,-1.706033E-1,-7.624141E-2,-2.625136E-1,3.4193158E-1,4.7488138E-1,-5.945318E-1,-1.3219404E-1,-3.585771E-1,2.2798E-1,3.4577125E-1,4.3273255E-1,-2.3633957E-1,1.3499121E-1,3.7435108E-1,-1.043425E-1,3.4307843E-1,3.6918414E-1,4.132268E-1,3.765659E-1,4.1623425E-1,5.5989814E-1,4.4849205E-1,4.0366146E-1,-3.048242E-1,-2.2523236E-1,-1.9428283E-1,-1.221796E-1,-5.6769013E-2,4.1531488E-1,-3.905222E-2,-1.2733665E-1,4.9032174E-2,-2.391328E-1,4.0121138E-1,6.654242E-1,-3.184506E-1,-2.5170517E-1,5.859741E-1,-1.8017706E-2],"split_indices":[20,12,20,16,16,15,12,16,16,16,16,12,12,12,16,16,15,15,16,16,15,15,16,16,0,16,12,12,13,16,16,16,15,0,14,0,0,15,16,16,15,12,12,0,13,12,16,15,12,16,12,0,0,16,16,13,17,16,15,15,16,0,0,0,0,0,0,0,0,0,0,0,0,0,0,0,0,0,0,0,0,0,0,0,0,0,0,0,0,0,0,0,0,0,0,0,0,0,0,0,0,0,0,0,0,0,0,0,0,0,0],"split_type":[0,0,0,0,0,0,0,0,0,0,0,0,0,0,0,0,0,0,0,0,0,0,0,0,0,0,0,0,0,0,0,0,0,0,0,0,0,0,0,0,0,0,0,0,0,0,0,0,0,0,0,0,0,0,0,0,0,0,0,0,0,0,0,0,0,0,0,0,0,0,0,0,0,0,0,0,0,0,0,0,0,0,0,0,0,0,0,0,0,0,0,0,0,0,0,0,0,0,0,0,0,0,0,0,0,0,0,0,0,0,0],"sum_hessian":[3.3246378E5,2.0240018E4,3.1222375E5,5.606807E3,1.4633211E4,1.0055719E4,3.0216803E5,1.1389554E3,4.4678516E3,2.7739807E3,1.185923E4,4.1880293E3,5.8676895E3,6.0906934E4,2.4126111E5,7.5499316E2,3.8396234E2,7.386233E1,4.3939893E3,1.9590331E3,8.149477E2,2.8003802E2,1.1579192E4,3.4983171E3,6.897122E2,5.028932E3,8.387572E2,5.7495513E3,5.5157383E4,1.1566133E5,1.2559978E5,6.821068E2,7.288634E1,2.8873842E1,3.550885E2,2.6488935E1,4.737339E1,3.358704E2,4.0581191E3,1.6847562E3,2.742768E2,1.4506662E2,6.698811E2,8.363137E1,1.9640666E2,7.7647675E2,1.0802715E4,1.5481049E3,1.9502123E3,6.59533E2,4.369399E3,5.544056E2,2.8435165E2,1.8452423E3,3.904309E3,4.5348254E4,9.809131E3,1.130419E5,2.6194336E3,5.6010527E3,1.1999873E5,3.578511E2,3.242557E2,2.6923967E1,4.5962368E1,2.0489439E1,8.384403E0,2.0073341E2,1.5435509E2,7.881288E1,2.570575E2,5.938748E1,3.9987314E3,9.4245886E2,7.422974E2,8.815523E1,1.8612158E2,1.3618481E2,8.881804E0,6.6750916E2,2.3719525E0,3.42528E1,1.6215385E2,7.640956E2,1.2381143E1,2.4463649E2,1.0558079E4,1.2702969E3,2.7780795E2,1.5893127E2,1.791281E3,4.37384E2,2.2214903E2,4.2406888E2,3.94533E3,4.122101E2,1.4330322E3,1.1244524E3,2.7798567E3,4.35213E4,1.8269539E3,1.6275604E3,8.1815703E3,1.07563875E5,5.4780205E3,9.3238E2,1.6870537E3,1.2071001E3,4.3939526E3,2.357025E3,1.176417E5],"tree_param":{"num_deleted":"0","num_feature":"21","num_nodes":"111","size_leaf_vector":"1"}},{"base_weights":[6.7172768E-3,-7.1105896E-3,6.059757E-1,-4.232677E-1,1.2902529E-2,4.0116403E-1,9.4588673E-1,-2.0572524E-1,-4.7271445E-1,1.2201409E0,-9.492913E-3,7.679144E-1,2.5668952E-1,8.003603E-1,1.0169243E0,-1.7396632E-1,-7.0493567E-1,-4.3957993E-1,-7.23371E-1,3.3245295E-1,1.2797815E0,-4.872548E-1,1.4339467E-2,9.033805E-1,6.038043E-1,5.150556E-1,7.718162E-2,9.4946605E-1,6.415479E-1,1.0197906E0,7.150154E-1,-5.21347E-1,-1.2738597E-1,-1.3552598E0,-4.6429962E-1,-4.9310237E-1,1.6412922E0,-2.5542262E-1,-7.6951677E-1,1.2942265E0,3.5061985E-1,-4.3992338E-1,-8.326646E-1,1.3893704E0,